-1.757807513367111385e+00,-6.432294978550406883e-01,3.497743667605573425e-01,-9.684743569344522740e-02,-1.902814615302142465e-01,-8.866234769084596623e-01,-7.979464501192972126e-01,-1.225894909461340276e+00,5.518596404787507598e-02,-8.894079896122427664e-01,-9.110381773174307529e-01,-6.961080570409348793e-03,-6.804273621787886306e-01,-6.947804978586707980e-01,-3.193929572125470684e-01,-6.043539797874666331e-01,9.473000345665399946e-02,-3.416504281327712444e-01,2.636310111835767911e-01,-8.710802201500240927e-02,-3.884363300324671919e-01,-7.837902734823007367e-02,-2.206609436743121322e-01,-1.505240396779244094e-01,-2.702317280458653159e-01,-1.079481294284160425e-01,1.323556015394879715e-01,-1.536735945526548797e+00,-3.103401812053369069e-01,-7.295740757615045702e-01,1.849817642858997968e-01,-8.022435728385587383e-01,-9.755788655233099682e-02,-2.010883310941436949e-02,1.811111172260587487e+00,-8.434327254334326174e-01,9.882171343747763181e-01,-4.341768415507563650e-01,4.498883353974196253e-01,-1.261819687303733284e+00,-1.619172936157629861e-01,-1.023692950340185259e+00,-3.994724768602175846e-01,-1.442409331016856422e+00,4.901802875467090731e-02,-3.392398420167317546e-02,4.425786937563352952e-01,5.611745584785296503e-02,-1.131285743216416534e-01,-1.351164037071705959e-01,-3.404819658552920569e-01,1.507603141692131776e-01,-2.481939148776485249e-01,-1.187208868067249234e+00,-8.195752616550447955e-01,5.684430641461013511e-01,-1.470556588961624729e-02,-1.011272778891841417e+00,-1.419978127214982733e+00,-8.498989921035350337e-01,-1.013594325859395573e+00,-7.844267754993999864e-01,-6.745227268586694302e-01,1.709407544760974673e-01,-2.310019865822742283e-02,1.429659367463990971e-01,-2.733453076749685073e-01,-2.374436488811625112e-01,-5.199677394451308193e-03,6.611859624039884142e-01,1.302490955714703802e-01,-5.613846678521977607e-01,1.438330285090176075e-01,-3.121447710211886495e-01,-5.894396345226428080e-01,5.570886352192171431e-01,6.763170854654000641e-02,-1.326309832130238564e-01,-7.612761336091893039e-02,-2.393245990736546869e+00,1.478241674374537462e-01,-2.374747109461829153e-01,6.083037247472090209e-02,-4.173089557569245600e-01,-4.680996440475733711e-01,1.138131448843640037e+00,-3.349404719879806036e-02,-5.647455919113667511e-01,-7.794021799759531799e-01,3.394729945744921762e-02,-1.335292286552629548e+00,-1.869316869428343797e-01,-1.252333109396378097e+00,-2.062406182815350042e-01,-9.119682705377235576e-01,6.259818421405847211e-01,-4.331821148094654461e-01,6.441673001865066972e-01,3.020666570889727898e-01,3.257367934126118719e-02,-2.064374228287325364e-01,-1.037067192554111505e+00,3.965256067098444914e-01,-1.454572027323974004e-01,5.524057844768972408e-02,-1.084284059123463040e+00,-5.070847660712856086e-01,-5.377182745762882909e-01,-6.998677788281174594e-01,-2.638297852060891291e-01,-4.311532396604857431e-01,-8.452932524639030776e-01,-5.428343492024287897e-01,-7.994877294815628810e-01,-5.823139671403083639e-01,-4.224472721109558404e-01,-1.158986558913857490e+00,1.308520316527148758e-02,-7.470353478499662803e-01,-1.673978930030573520e-01,2.261324056084575707e-01,-9.715225808677424579e-01,2.503990311841871041e-01,-5.386341161328118687e-01,-1.534624255579961405e+00,6.309624680828808119e-01,-4.018696461242113882e-01,-7.573711336180712940e-03,5.051319021406557030e-02,-2.939472929333739604e-01,-1.220092630218476831e-01,3.904861551266092246e-01,-1.334389460668909955e+00,9.745547974659631019e-02,2.757397335277962380e-01,-5.856987363646597444e-01,-1.259967920655811202e+00,-1.959304925441325562e-01,2.293891876028369692e-01,2.764259773763393935e-01,-1.059511587439663893e+00,2.492830235836046293e-01,-3.674166781453284680e-01,-9.193601327855372984e-01,-1.386939274891121343e+00,-1.373599540419148113e+00,1.633057740931088908e+00,3.777408378728516758e-02,-2.390676704035011035e-01,-1.224421233416612909e+00,-4.384285259485994901e-01,-5.643063677754667218e-01,-5.341370420901462301e-01,-1.663773778194931885e-01,-1.217104370751196235e-01,-4.699222166151834634e-01,-1.855292813932487794e+00,-1.289456307478423769e+00,-8.238185977036952545e-01,1.037132182222669341e+00,-1.466132315859368873e+00,-1.285205431384256247e+00,-2.093448364659897809e-01,1.114088874189617245e-01,-6.539724912943514212e-01,-2.360566112750963064e-01,-1.358161232800902507e+00,-8.290456838639051473e-02,1.288109099139040481e+00,-2.749090284280211738e-01,5.602538346544400083e-01,1.804492285942373320e+00,-2.084117251719588004e-01,1.725732703635087240e-01,1.966545604057529928e-01,-5.862944492073982605e-01,-1.724723646099433072e-01,8.463637467282103533e-02,-8.059575699116421355e-01,-1.385959569993122920e-01,-8.275953101478081275e-02,-3.348857575804252140e-01,2.748887516481924795e-02,-7.164781305315524040e-01,1.334435618463101214e+00,-1.458260490046113245e-01,-3.032709529068302046e-01,-1.169933957246093836e+00,-2.953332493797745095e-01,1.147581740604833589e-01,-8.102927639378377719e-03,4.099321511528539741e-01,-8.135097832991795841e-02,1.273114458198668641e-01,2.120346837858655853e+00,-6.157016410341201729e-01,-9.201701085985198869e-01,-3.227903547937290285e-01,3.074880113796653672e-02,-1.308783936149000016e-01
3.927613110343715075e-01,-2.912539108351362982e-01,-1.184579167182119308e+00,-6.407666204312328917e-01,-1.849240251656606160e-01,-1.595531572067318826e-01,-8.087668953215271239e-02,1.211980738777286293e+00,-9.320192801023738371e-02,7.577446755433621395e-02,-6.001383733980064639e-01,1.841352128045730785e+00,2.968038736320045001e-01,-3.903031856865118998e-01,-5.578502100361284466e-01,-1.153047722676816128e-01,-3.231057190777128496e-01,1.414428547794318369e+00,-4.809250345028870943e-01,2.950882987322317810e-03,-5.273554526830925848e-01,7.166790589021397873e-01,-3.623019977115796153e-01,-4.986147182974414588e-02,-2.079854185364253816e-01,-1.197720399995891860e+00,-8.308184425271547546e-02,-7.633955938210802428e-01,2.543827780054758181e-01,-1.242104463900906453e+00,3.124179775922123793e-03,-7.357107534444426444e-02,1.311330542484897554e+00,-4.224103177908730689e-01,-1.460925355373573764e-01,5.229227432579345441e-02,-6.508867516970241462e-01,1.835307777646177640e-01,-2.176716413664538385e-01,-5.309356528547037879e-01,-1.448267207110555121e-01,-2.513534560133721674e-01,-1.651423053393585583e-01,7.505151854467616568e-01,-4.936341893648376056e-01,-2.144712997480462402e-01,3.905481503422110756e-01,-7.825299877755128586e-01,2.129020700366719143e-01,1.637907257001777750e-01,8.006543394745603281e-01,-7.270593913843390044e-02,-6.852428000975253619e-01,1.353903588043176676e+00,-5.983362779407406240e-01,-6.903706569023740913e-01,-3.259036056953591720e-02,-1.099597391762502596e+00,-3.896982838270597882e-01,1.339269683930999433e+00,-3.592334061370246467e-01,-3.323034372974180140e-01,-3.174486524258613440e-01,-1.556372643857180660e-01,4.934035009786291726e-02,-2.256408832048933111e-01,-4.985018476620669547e-01,-1.414811105814910153e-01,-1.035711627503184129e-01,-8.377083700741087824e-02,-7.531018198787998719e-01,-9.064728438586974191e-01,-3.921395311018597285e-01,2.664687405140610532e-01,-7.853006306385285074e-02,-1.137737745642246168e+00,1.343786839080576001e-01,-5.088380563556638841e-02,6.375611952869942867e-01,-1.257266457289790917e+00,-3.169953475364444273e-01,9.030494852686395957e-01,-8.605039625529677938e-01,-1.356471678940291692e-01,-2.533228779379684270e-01,3.910323070512173871e-01,-4.723737615010442648e-01,-9.732861352836151558e-02,-2.244792825176200879e-01,2.756559753851547598e-02,9.564256632428276284e-01,-7.727989624241073108e-02,-3.689579195643441500e-01,4.201429392231127435e-01,-7.272284179373371682e-01,-2.034652094087716911e-01,-1.016896637219078192e+00,-9.490054882350401622e-01,1.454858883029908623e-01,4.720554165350178931e-03,-1.157027482203597080e+00,8.542013014266127552e-03,-2.561664733183712239e-01,-2.276559262068367229e-01,-2.079845012525007586e-01,-3.059257182440723866e-01,-1.196706708312991418e+00,-4.352583562596065714e-02,-9.214321294430556364e-01,-7.922377641531735959e-01,5.243830749396806157e-01,3.228612967711509962e-01,-3.598549311425613406e-01,-1.063138331052377455e-01,3.881390018604967129e-01,-2.186950622171701664e-01,-1.985064509789944698e-01,-2.367215908650701084e-01,-7.365172634159421472e-01,-8.141696306157231167e-02,-2.059631018960283111e+00,2.432640185456418080e-01,-1.239068088972446802e+00,-2.046595307700850297e-01,1.928343548668453034e-01,-5.604320746540238929e-01,6.879964857050543947e-02,1.372535837966238015e+00,-4.104098705467284502e-01,3.607640430893288563e-01,-2.094684407375485280e-01,-4.474255176945322598e-01,-5.861960596971985682e-01,-1.041590952461385888e-01,-1.476504659776091133e+00,5.822854355309568103e-02,-3.481838503964532205e-01,-1.351975351522608781e-01,2.573695475723250872e-02,-3.834322271118074110e-01,-4.506516251701949555e-03,4.153083369587231011e-01,7.467596322045146583e-03,-5.984007938031238316e-01,1.167190686002676919e-01,4.519040935287518268e-01,-2.208607880205048501e-01,-2.907180761600088870e-01,-5.214544072689117904e-01,-4.754330978731307056e-01,7.672633297663091767e-01,-4.182993031489786184e-01,1.836559164896793897e-02,1.410611325965644425e-01,9.875066632401757749e-01,-7.815383872082272143e-01,3.115613183512747075e-02,-8.534534226602652485e-02,1.082590202827319770e+00,-1.456850172896242690e-01,-1.236001359647137532e+00,-1.627336592121449765e+00,-3.328306396773789665e-03,-4.377802903437891802e-01,-5.512519131640722936e-01,-5.764496128213498008e-03,3.049184590303463116e-01,-1.742641436625656445e-02,3.293481258327031758e-01,-1.120400684308628103e-01,-5.222841282652369577e-01,-3.144856428389020131e-01,-5.701812636523819755e-01,1.793733019804579776e-01,-3.912509083134080856e-01,-1.279690962221923023e+00,6.241495879855518680e-02,1.739269185666668882e+00,2.299356912333164082e+00,5.684416625693802794e-02,2.046994049663010962e-01,-1.137729791723269601e+00,-2.366984794150567284e-02,-2.528412462187366594e-01,-5.443388565795155287e-01,-1.693727688977651746e-01,-9.723585316692699987e-01,-2.071336965697623544e-01,1.729336320602398724e-01,-7.442108350946460837e-02,1.074109422970811023e+00,-9.409132036370005947e-01,7.133399505639928528e-02,1.356040574909278540e+00,-3.520389411430444593e-01,1.050181724039130460e+00,5.650605191366329244e-02,-8.638678787812794635e-01,-6.681780710707322379e-01,5.398741413466123101e-02
1.965317912381132848e+00,1.027798014393942055e-01,-9.074807578607412273e-01,4.336583279905950605e-01,-1.604862436142648008e+00,-3.315843555086132599e-01,9.628374801011287121e-02,-1.196896012500377582e+00,-1.087799428274254909e+00,-6.362066411633676699e-01,1.408513124776943348e+00,-6.247858098434190266e-01,6.059556589922904940e-02,-4.932845563380270915e-01,-1.022775135811045955e+00,-3.168624331186415954e-01,-1.422320899037144426e-01,-5.756446230692244814e-01,1.608885144601953199e+00,1.362024535586293383e-01,1.644004900164788507e+00,5.945714328296571871e-01,-1.223568552820347932e+00,2.013230607191876409e+00,-1.866111149672781966e-01,3.816049935358692968e-01,-4.033329621666984499e-01,-3.581228514909391425e-01,-1.382179721012961049e-01,9.876130036137924506e-01,-1.741365511157358381e-01,-2.094101456197853262e-01,-7.719428886520548483e-01,1.318874644531128904e-01,-1.168821111961640735e+00,-1.386068520376784463e-01,-2.213191913700807589e+00,2.056971671871352936e-01,-3.291560090482866241e-01,2.908890546522299170e-01,-4.208530236988879958e-01,-1.761440919262892368e+00,5.478082150274552475e-01,4.589667973130973633e-01,1.654601091574805227e-01,-1.104153677685539986e-01,-6.448984407881874770e-01,-5.387989737990546424e-02,-5.262918635363330599e-01,-7.865142280757139170e-01,-9.914359086513384600e-01,2.036396483176448891e-01,-4.157685982834722349e-01,1.035497288061040022e+00,-1.772718911046138990e+00,9.230332002238199607e-01,-4.628857608446255156e-01,-9.710321890931332689e-01,2.951256853062239061e-01,-4.087347169605839436e-01,-7.302744931302249665e-01,-3.125248947301045299e-01,-1.234744273584160723e+00,1.285633274772761403e-01,-1.677132129896348189e-01,-6.081134180671109446e-01,-6.450451798509318491e-02,-3.286289783612877241e-02,5.531597691263988315e-02,-1.125700188654166073e-01,-1.030057470632187999e-01,9.874052553171827062e-01,-1.645234890391089611e+00,-1.519499381343677680e+00,-5.169982575174825179e-01,8.732575839058672740e-01,1.011316849073796431e-01,-1.640611525844737698e-02,2.818707702561756151e-02,-1.894822360640080916e+00,3.016391836069711174e-01,3.768886887398273378e-01,9.907759753717185203e-02,-1.061679813368860276e-01,-1.319024228791674247e+00,6.205507159253650373e-01,-6.702182100994404090e-02,-1.125227052174474635e-01,1.301187329171636486e+00,-2.448495058592437268e-01,6.715828652893719442e-01,-1.781183968567332798e-01,-9.178989555756101870e-01,4.825628451316124057e-01,7.601653417579803396e-01,2.064344089942964366e+00,-2.013403290583767324e-01,-8.576734553626348401e-01,-3.740040079239620452e-02,-2.103831143933571901e-01,2.438862733065616795e-01,-1.387946501727965298e+00,7.740151528420529115e-01,-4.603724092043585125e-01,-4.123731577607321896e-01,1.191966265844939810e-01,-1.163993480129408953e+00,-6.217135967004630004e-01,1.107755897088069874e+00,5.882770877325720349e-01,-7.095319200058178843e-01,-1.072356341971868021e+00,-3.544220167557976531e-01,8.591444670876793310e-01,-4.022719153855190410e-01,3.028689957868944266e-02,3.861842978116522551e-02,-6.558692171119262504e-02,1.159119146964803920e-01,-3.012327528014676070e-01,-4.433878817566622166e-01,1.052982093083959514e+00,-1.291545203562542987e+00,-2.697857991910421749e-01,1.691068241378809622e+00,-7.433322276214613389e-01,1.921313386513226806e+00,-4.370306369026508153e-01,-1.067413887666672112e+00,1.242330896302739907e-01,-5.462116299166226707e-02,-1.059538259459240184e+00,-6.668905376186676781e-01,2.506903487489529556e-02,1.135699689669116053e+00,1.038283927809857329e-02,5.260669237775982277e-01,-2.369797206869037054e-02,5.522365758872681968e-02,-3.209519310532210623e-02,1.194876803096269063e-01,-2.711794534877055018e-01,6.966041646179833846e-02,5.511582726705215318e-01,1.968881868849878369e+00,1.396866590198989899e-01,1.068878297926623366e+00,-1.830757597234837497e-01,-4.017041964198379000e-01,-9.131199145660637284e-02,-1.349201776819508369e+00,5.148764837343947631e-01,-5.816578661128060102e-01,3.444616115298179682e-02,2.406491975493297186e+00,7.844767918638048676e-02,4.428092161344414079e-01,2.271251374559238645e+00,-8.527614191728358772e-01,1.856120847552743758e+00,-7.059306910576647054e-01,3.898542785095758245e-01,-1.133221919497720970e-01,-1.343664376654524872e+00,-1.513677770813199042e-01,-1.361373542200071396e-01,-1.284263377039040588e+00,7.997609038581015017e-01,-2.645222342136426263e-01,-3.705653442567620748e-01,-3.029817218563824466e-01,-1.248371497491689991e-01,1.147330401404216493e+00,1.388332851531606515e-01,-9.267119581225760072e-01,1.028064625786409669e+00,-3.716521024045151278e-01,1.322811027647380344e-01,-1.207510382684165329e+00,1.656432464615300137e+00,1.965410452708341582e-01,-5.102074250431586355e-01,-1.832083134153933979e-01,-7.464664756988441674e-01,-1.172308459715697193e+00,-1.134871525364957723e+00,1.114996733504258208e-01,-1.875230913766882113e+00,4.129743055200154472e-02,4.298540142231888073e-01,-1.272921656624963260e+00,-1.516124734305466792e-01,2.932045600919343520e-01,1.288462341330621541e+00,-9.232010999324232747e-01,-1.359439696901658223e+00,1.167879953151069072e+00,-9.330461884091848512e-01,-7.076045681748426297e-01,-3.129717185750143793e-01
-1.002636456867661285e-01,-1.183777171353836422e-01,-6.041570768188212481e-01,1.019315242459785331e+00,-5.818773010533566659e-01,-3.064806568777130868e-01,1.259508419944735391e-01,-3.535607996021717520e-02,-9.604284494259577309e-01,-6.950201213000023470e-01,-1.544291497686038239e+00,-5.758562406592669936e-01,-1.246108989095099151e+00,-2.013757968982024860e+00,-9.946653051807938239e-02,6.543203102713605057e-01,1.683591077588045826e-01,1.173262902748957170e+00,1.213920356813835977e-01,7.957314776227498998e-03,-1.191464610819082504e+00,-1.213472301299219902e+00,6.574842900407504853e-01,-3.275889816736710092e-01,-2.138891351095268678e-01,-8.001603808392149242e-01,7.648445898951623523e-01,7.175276723021501990e-01,-2.176718237926085764e-01,-7.210474126693516839e-01,1.167950880300374222e-01,-4.379716888985769052e-01,1.752225326126454971e-02,-4.576916659492891726e-01,-1.013883548210543717e+00,-2.092334631245958143e-01,-2.071610267544019557e+00,-9.457731538111276148e-02,-1.064970847116184283e+00,4.203368741833215516e-01,-3.744329537937788333e-01,1.507255731881141259e+00,8.797676847021437818e-02,1.960831687878485385e-01,-2.016263606070616832e-01,3.401619729438391110e-02,7.552587176837290972e-01,6.106972973240541724e-02,-1.892194335028478891e+00,-1.344502370488465770e+00,2.378831863213680897e+00,-3.927690456996287272e-01,4.395132166524016309e-02,-1.667840227963688360e+00,-6.406248574539402663e-01,-1.927009094532083466e+00,7.866104405281641732e-02,-1.454486278484692807e+00,1.893319555149913236e-01,-1.610325448380899083e+00,-5.988424782611208030e-01,-1.982241423889842702e+00,4.112415338510795326e-01,-7.477092504341181084e-03,-3.536763716086258058e-02,1.455192037123986641e-02,3.079485693757556541e-01,-1.354345118049367913e-01,1.160375434528036070e-01,-1.139482033346981060e+00,-5.765801148359152029e-01,-1.506026747401771226e+00,1.299422258229135041e+00,1.670277823804172668e+00,-3.560293072925390656e-01,-1.093989014167970231e+00,-1.606092255279749914e-01,-4.294368415210051554e-02,1.358843712499281153e+00,-6.809948378063316321e-01,-6.616819025410354271e-01,-7.306205343649169182e-01,6.374805457030304767e-01,-6.869188100819223486e-02,-3.390206394580085880e-01,-4.104476760391485013e-01,-2.250213448359688340e-01,-1.377985644748217220e-01,-6.338788762135895427e-02,8.019924240003435678e-02,-1.049849836412580784e+00,-1.563017070019526167e-02,-6.018613237469827570e-01,-3.443084492090268262e-02,-9.255424059559965722e-01,-5.154736687494374664e-02,-1.452275685244671211e+00,6.800327333214662984e-01,-6.902345963620911198e-03,1.073252361360466922e-01,1.104434573218815219e+00,2.062586666058478624e+00,-8.882288415016174055e-01,-1.084373755804853623e+00,-1.590597341176553492e+00,5.215188894080912546e-02,4.767347396725017394e-01,-1.725362622656306133e+00,-1.493228879479955973e+00,4.479330280026010830e-02,-7.952950993644545274e-01,1.432290920926740485e+00,-1.521574911529801843e+00,2.272232637261236032e+00,-1.344117843365393895e-02,-5.867598689203956663e-01,-8.079647926849655715e-01,-2.155522355736163784e-02,-7.403988523317219794e-01,-3.149401809997054436e-01,-2.650974708714856076e-01,-1.012354924655874067e+00,-7.726768053238741718e-01,-1.561662488050187259e-01,-7.747126415559545398e-01,-1.687290460130567160e-01,-1.291561865031365164e+00,-8.917806940185858400e-01,9.549762200164096937e-01,-3.395616681160528172e-01,1.029989664104154039e-02,-8.277938650437515200e-01,-1.448507218017393683e+00,-9.811508562282064694e-02,-2.659338462295440797e-01,1.566679626144717452e-01,1.705787625847840605e+00,-2.305627434430191844e-02,-2.907770925808400575e-01,-3.227059499003668286e-01,2.660661494010629902e-01,1.215481536511696659e+00,-1.396834039431130436e-01,1.570046272131773391e+00,-1.231893929701559420e+00,4.856407017769957535e-01,-5.950104848243826378e-02,9.266411194055540479e-02,2.594758645120745388e+00,-4.655172758802560845e-02,-6.076827151508581437e-01,-1.177427178322509649e+00,1.975721201631391033e-01,-1.691479883611259616e-01,-8.584327509696096925e-01,1.468935810281336130e+00,3.313839260097581341e-01,-4.278197204199289949e-01,-6.242511864325523963e-01,-4.028928939016753197e-01,3.933871639118381447e-01,1.026477786678017035e+00,-2.690628226638286935e-01,-1.329821432064538511e+00,1.289552211968379547e+00,-1.736364862304775603e-01,1.116906498345014764e+00,-9.729036553263887832e-01,4.328265773396342692e-02,1.716226667788891824e-01,-1.271941042326304450e-01,-6.606996655416395026e-01,-5.243685003714646520e-01,-4.021867890552434655e-01,2.029538542266380752e+00,1.283469949246031749e+00,5.045451293375585039e-02,-4.484080033492199302e-01,-1.049445123189595153e+00,8.347364461823602033e-01,-2.827501970385146723e-01,5.527327480691195394e-01,5.682627472846115552e-03,-8.311141490747067095e-01,-1.449432121934200568e+00,-1.114598404558323208e-01,-1.870428586176919594e-01,-1.708121998228063543e+00,6.784818352436822186e-01,-1.254745213986365460e-01,-1.155785835916561637e-02,2.216210492878050997e-01,1.010348232053909445e+00,-9.641347953590644337e-01,-4.881745737715237898e-01,6.812207194084496376e-01,3.452613632710069269e-01,-1.147631359880986412e+00,-1.549802833014934933e-01,1.549176562023573400e-01
-4.729475983505815884e-01,-4.408020702971691129e-01,5.006505795593847452e-01,-1.869063082627331118e+00,2.650095971562260289e+00,-5.679593068975878900e-01,-1.436131587073649074e-01,3.431664164452841725e-01,2.866620557596110674e-01,2.918653089967999589e-02,1.495492052327229426e-01,-2.501974802324186120e-01,-8.788642473132735056e-01,-7.791627955510691539e-01,-2.272880536307020360e+00,-4.606983496812029899e-01,-3.888492386869501494e-01,1.539935271673587236e+00,-1.522190791587135106e+00,-1.286293143600280853e-01,-5.786287019435170098e-01,-1.134695815091548432e-01,-2.214755255821375668e-01,1.011188458403834423e+00,-3.298729163415114463e-01,6.374619343396155102e-01,-1.163149312901150090e+00,-9.267070036156324075e-01,-4.165065421094583942e-02,2.048144560577775941e+00,1.192666039064550765e-01,-1.100476700266335983e-01,1.490783762752780683e+00,-3.784549958620238019e-01,-8.064995326146663368e-01,-6.605828292310466088e-01,1.468206991167936848e-01,1.417561086834429718e+00,-1.646272494000604825e+00,-1.478540103906328396e+00,-2.258198586669976290e-02,1.618823459575532420e-01,-1.993173192933695714e-01,1.084860377960884303e+00,1.021192376567121446e-01,6.054339034224599098e-02,4.009162100998362593e-02,-9.914412102178304931e-01,1.023056474488043044e+00,-2.777939093456474051e-01,-7.762325525832289297e-02,-2.141940201633275864e-01,2.133606596659019805e-01,1.787234482563920535e-01,-4.664728255061909024e-01,-5.381323480367112833e-01,-3.824982964324041834e-01,9.102900497659490719e-01,-1.083654699474003058e+00,-6.940418666724889052e-01,-5.799055130863473018e-01,-5.604531962592695926e-01,8.783165868351426875e-01,-4.798617685867131444e-01,8.921870544475662620e-03,2.077091255712711249e+00,-8.579979317653010917e-02,-6.998775781562753540e-02,-6.992662486843191638e-02,-4.546529119076644920e-01,-1.099974835872223056e-01,-8.773578726275141904e-01,-1.655358320518079962e-01,-2.738393703045623462e-01,1.685398491987170511e+00,-7.408318601509926715e-01,2.465955096540550437e-02,-3.238158910211002550e-01,6.144163839521411541e-01,1.368509654032281919e-01,2.891669501063787173e-01,1.041824042283736151e+00,-4.118912635903266284e-01,6.434721815513158027e-01,-3.839349939590969152e-01,-6.525105324563713616e-01,-6.378597247790969427e-02,-2.524139827358919952e-01,-1.914705018616402299e+00,-3.426921956107339406e-01,-8.412290754347212518e-01,-2.214675825677428767e-01,-1.105560915837021652e+00,-1.407938724819635334e+00,9.121726998617960547e-01,-1.202296839081345436e-01,7.632568180450933770e-01,9.885917939697920209e-01,7.393574751080123075e-01,-3.576639648031935681e-01,-3.459051932160462917e-01,-1.456811262126228579e-01,-1.046031243869488314e+00,-5.466242242745373847e-01,-1.138435062382754104e-01,3.645762686616655923e-01,-7.328977048323607191e-01,-2.005116318242180506e-01,2.975257301925841036e-01,1.011523355049845474e+00,-2.273291783876434102e-01,-4.838194013748438604e-01,-9.470403468462855745e-01,-6.457775429501403375e-01,7.047009118923895921e-01,2.022889809838351316e-01,4.159864893161107635e-01,3.133788813267034210e-03,-6.881499870497576055e-01,-6.274562995157904888e-02,-4.341927724670288091e-01,6.044550457382815711e-01,-8.294930548703188800e-02,-2.641493960371721350e-01,-5.859361522126068644e-01,-1.895493335630475285e+00,-2.150880276455577056e-01,-2.149769808655316305e-01,-5.294104801575848507e-01,-1.616948118931809564e+00,-6.511373966853716000e-02,2.107617318819257068e-01,-1.428610150125960265e+00,-9.400540262213222253e-02,4.906947924050691912e-01,-2.698811807319067557e-01,-8.211751652896261966e-01,-1.606243723333135864e-01,-2.746980544840446070e-01,-5.779051157301832303e-02,5.457340597188944376e-01,2.335217269753560032e-01,-1.457804806772277917e-01,-3.850281784528474804e-01,-5.776187153830137921e-01,-9.805121588563070478e-02,-5.023156795706904543e-01,-7.750577493789056333e-03,-8.253794033365302596e-01,-3.884444087772503384e-01,1.195784368072676657e-01,-8.211886825599977735e-01,-1.537593903935125794e-01,-1.789021199562505493e-01,-6.019190978921763469e-01,-1.567307938621346208e+00,6.572542872226971866e-01,-1.461535455721509003e+00,-1.210577012470040126e+00,-1.246687964108134317e+00,7.943428210911564202e-02,-1.073560935347641410e+00,-1.271824727589479842e+00,-1.670261757622494070e+00,-1.260796322065634412e+00,-5.896278241054109248e-01,-2.954236883619556497e-01,4.382709579430205671e-01,-4.165729936806361056e-01,-9.225708213555821047e-01,-8.621785073002015132e-01,1.602001285271403841e+00,-4.750357886589626905e-02,-3.962532341720367834e-01,4.498563004904775758e-02,-6.856274265111007571e-01,2.775317319571737329e-01,3.972606705945813110e-01,-1.898681618921749803e-01,-1.580553272323556580e-01,-2.979110101628968180e-02,-2.018677301863475826e+00,-1.052122075074686941e-01,4.046379106999499209e-01,-5.675972581288970531e-01,-5.523282560000967178e-01,-8.810075858082593303e-01,-3.395823524757645706e-01,1.779552392434489372e+00,-3.162921336839802366e-02,1.268196548992004846e+00,-1.715986779521566641e+00,-2.918226570533255071e+00,7.169021375737855140e-01,-1.091674426701824963e-01,2.882231932471814306e-01,-1.047590152319623158e+00,1.007196404128857914e+00,5.264211633579460869e-01,-4.123570130801739175e-01
8.356969846773241173e-01,1.558886652909606818e+00,2.535120830486736754e-01,-5.433384439015663814e-01,3.089261893690095628e-01,1.774390343523756020e+00,3.854733033995256242e-01,-6.251884709869751644e-01,1.500536428556594748e+00,-4.105776548403645143e-01,-5.602612867948522646e-02,1.043452398952482429e+00,5.094062215387104020e-01,2.285122758392134745e+00,-1.963627756243942812e+00,-6.949752356544717236e-01,-3.529738223326440300e-02,-6.363677250643093863e-01,1.120292490101647970e-01,5.625040565519112690e-02,6.356398166777602055e-02,-4.945046937547595278e-01,3.070102157586600544e-01,4.021122070189719899e-01,-3.830561620281547897e-01,-7.478864625757505324e-01,5.835440438707641952e-01,1.025282868910706968e+00,5.851517546354164656e-01,4.058900055885181213e-02,2.572652165881613162e-01,-4.301843437125483227e-01,2.459878883754040013e-01,6.227717132117407267e-02,-1.538744824461685923e+00,-2.882645756350514232e-01,2.427432445627052682e-01,-1.452438923839243223e-01,1.098323118520065700e+00,-8.657183309153809736e-01,5.979132440445213970e-01,1.739357429071795025e+00,7.410309036613346723e-02,-1.313638957033610444e-01,1.294908269190035988e-01,8.330556595896190797e-02,-2.477785172949379527e-02,-3.267258320591481247e-01,1.287360366650646792e+00,7.274975033677164582e-01,-9.470686772402705511e-01,-1.286684386381460321e-01,-7.773316188242934688e-01,1.349643033433829131e-01,-1.710633190005677318e-01,3.325881981033699253e-01,4.863576313502549625e-02,4.947468136556213425e-01,4.681757104958547133e-01,-1.161362293911521348e+00,-8.579629959510712833e-01,2.698671381841678318e+00,-1.130470854717096352e-01,3.934796010647965692e-01,1.401088338539333567e-01,-1.062181992833770017e-01,1.385816958293027007e-02,2.360395685457174764e-01,6.613061804279757316e-02,-8.463562064014752417e-01,-3.505537291897621865e-01,4.165069507238930435e-01,1.288986388604542732e-01,-6.557494978246822259e-02,-4.656719543912586912e-01,-1.111321357454731817e+00,6.521480602815733496e-01,1.251083056924527648e-01,-1.859708620321595562e+00,3.564868266576028399e-01,-4.814995262495867512e-01,-5.788235132777045377e-01,-2.378727296419045067e-01,6.840744286004017682e-02,9.655508800425147142e-02,-9.920099335088744530e-01,-1.342067378927142701e-02,-5.077622120115122817e-01,3.602808547118632743e-01,9.772880480324387664e-02,-5.171550282354261396e-01,4.203488825440379606e-02,-2.905837095730826047e-01,-7.381252545706467050e-01,-1.063423682867433273e+00,-6.515683696501445299e-01,1.496617821397186798e+00,2.004891521772537710e-01,-1.017193904488652434e+00,7.335320416565628554e-02,1.354614865932724399e+00,1.855355474800606697e+00,-7.035874925673087921e-01,-5.006388076419882038e-01,1.556650811041172977e+00,-4.677233002243862958e-01,-5.916859867254198324e-01,2.021700287069588597e+00,-6.114912433459707142e-01,-2.980025762608627393e-01,9.126518514330844711e-01,-3.884789199381937230e-01,1.661912274735321216e+00,-2.005263473175465272e+00,-4.608262973438272403e-01,-3.395947949774709151e-01,-6.336874177858784485e-01,6.283299989851452716e-02,1.718770627166663623e+00,1.210378162179014255e-01,1.149989081966885207e+00,-1.623519612837828197e-01,-9.653637818300464524e-01,-1.460564162674461708e-01,-5.134674478936424036e-01,6.444162897969978321e-01,6.217652349462602507e-02,5.848842206215678630e-01,2.620499125530678097e-01,-6.867932826253503320e-01,1.056867884905489802e-01,1.557605656195008015e+00,1.683222646358228936e+00,1.983776280145083115e-01,-3.906098894991623105e-01,6.406482615792942481e-02,-5.486833713843448646e-01,-1.569667600525040674e-01,1.063876899508748308e-01,8.489984529583555206e-01,3.082420112457205374e-01,-7.604114118207681017e-01,-2.327610642135295449e-01,-1.275010027834099446e+00,1.288138095640765646e-01,1.301163327016573446e+00,-8.596762277410301412e-01,7.452931102351040282e-02,5.758606370161611920e-01,-3.483142769222810631e-01,4.737079946585417978e-01,-1.983548800558581904e-01,5.247968680190636670e-01,-8.807979105039959178e-02,-1.666516003026070614e-01,-4.861771109976808503e-01,2.243095129077355421e-01,3.656269197551975658e-01,2.161393897568236522e+00,1.606239190435576170e+00,-1.449202419226740535e+00,-3.300341251882517035e+00,3.207058080251293797e-01,1.091047047212802656e+00,1.232828322297981227e+00,-1.938093542397322788e-01,-1.932364021237945373e+00,-1.259728868637102484e-01,-8.443289335071441082e-01,-7.269235483297460387e-01,1.100761371817096990e+00,-9.024049614243833117e-01,-4.551216196136853576e-01,-4.371546248990479389e-02,-3.193217101145306991e-01,-7.593735696382131195e-01,3.802646316443530350e-01,-5.278481284039523436e-01,1.135665078211287593e+00,-7.140002862269640982e-01,1.931782151069678585e-02,-1.255911141347380466e+00,8.734328390621760863e-02,-8.639893757103868088e-01,-1.013182804410975163e-01,1.282383496865346084e-01,9.003764373862625792e-02,2.113588775701083777e-01,-1.001365940377337171e+00,2.203090552617730236e-01,4.855115820661881632e-01,-2.054363300505290535e-01,1.364746520876136904e+00,-5.350044333121058981e-01,-2.060955605445510042e+00,3.685632524577847069e-01,2.471889870410413220e-02,-4.236366009325258641e-01,-3.557749320984886499e-01,1.515125072357842162e-01
-8.461951322739491577e-01,-3.646353614403750609e-01,-1.625209298760598164e+00,5.556899740691873674e-02,5.446313593853455703e-01,5.813549657891359246e-01,-5.689017500685770168e-01,1.220541665413344523e+00,1.219371497301740583e-02,-4.192375895145097203e-02,-7.677252639170118603e-03,4.898018045913116736e-01,6.138679560839901406e-01,-1.067148814990085182e+00,-2.585824730110228842e-01,-3.623445606075675895e-01,-3.823001674376088621e-01,-5.460850045500906802e-01,-3.189506868878552170e-01,1.339443793625604839e-01,-1.180665281145653056e+00,-4.459956788799164240e-01,1.560329499280919408e-01,-1.259589369884539733e+00,-1.515710658164013680e-01,-4.055286141362106078e-01,8.085516782421581228e-01,1.339029002446096017e+00,1.224702443641338262e-01,6.834338420283173621e-01,-2.052024307861091412e-01,-2.780463658266933424e-01,-2.719555809452076645e-01,-1.616735752458452191e-01,-6.756327911994626512e-02,-3.378806526689184797e-01,3.143094145817740825e-01,7.860154430685613314e-02,-3.992391147319650502e-01,-6.192533380073539373e-01,-3.405171529685999676e-01,-1.346919510940260745e+00,-3.728222391535509495e-01,-1.020369019601089944e+00,9.961957823513706029e-04,-2.630087535726913783e-01,1.744018039104195394e-01,-1.162764982527547453e+00,-3.819843440136214685e-01,-1.249003580865550633e+00,6.838575616767321452e-02,9.834558356746224417e-02,-4.095612866276187591e-01,-3.415124528113825091e-03,-2.891140986246069078e-01,-3.475048320063255924e-01,-1.053305205552614032e-01,-1.220229865181934548e+00,-3.928101024336235758e-01,1.471118519288065474e-01,2.128736496386685939e+00,-1.111827130388969298e+00,-1.494311235374277957e-01,-3.801875531336104674e-01,-3.507116782965978286e-01,-5.584878601721479097e-01,8.682736399821107398e-02,1.614717648423003721e-02,-1.156227106184894854e-01,-6.948874179083998071e-01,5.087741409278255522e-02,5.341100319700263326e-03,-1.405649126738356958e-01,-3.987521242269512767e-01,-3.210432907597007834e-01,-3.064214573479713821e-01,-8.302384929174899675e-01,-8.559580806988152657e-02,-7.226090302846548408e-01,-1.981696704613286730e+00,-1.081938378741426510e+00,-8.067394170442151458e-01,-7.932965532658496910e-01,-4.778701442411469880e-01,-2.243950921508396923e-01,5.123392086237134047e-01,1.265116236218093715e-01,-1.453185133006531238e-01,8.267124640683525261e-01,4.715605086492874465e-02,9.540259572549238953e-01,-9.843144828737096508e-02,-1.806589193050449071e-01,8.819976512664364776e-01,-1.164702786240798121e-01,-1.358701511051375599e-01,-1.040675349995010102e+00,-1.995728073472123665e+00,6.349231511090076552e-01,-2.605071045923006423e-01,-3.950611104407616980e-01,-1.190524885283327894e+00,3.343446476829859543e-02,-2.906794726280542696e-01,-3.181182170652555596e-01,-4.179075520839671265e-01,-3.595661275010928470e-01,-8.822490884368576758e-01,6.856202258716754816e-01,-2.340530621614293760e-01,9.626262974354823365e-01,1.372741198820568442e+00,-5.821840137400313697e-01,-1.275573119722810178e+00,-5.755491124019367771e-02,6.028462884596057919e-02,1.339568350122133156e+00,3.855608459633901031e-02,-1.729494287344115477e-01,9.063910165340659242e-02,1.079589095739372229e-01,-4.507134186377158569e-01,-1.258431726959442498e+00,-4.345947897243715441e-01,-5.534469432912533238e-01,-1.091187846162381403e+00,-3.184378588627098106e-01,3.673923728128575261e-01,1.299864854203655051e+00,1.649941734422763151e+00,3.466036837232656237e-02,5.596375287985438235e-02,2.000395951690208562e+00,6.490417094477628213e-02,8.271486272373567150e-01,-2.951510201595883842e-01,-1.358984710682377139e+00,1.837001284598978323e-02,-1.777435143422873565e-01,-3.592677327608214122e-01,-1.619597474473671639e+00,-8.489017179227957843e-01,8.127485854274049681e-02,-7.104210616772560494e-01,-9.277315346241971072e-01,-1.843753541113851924e+00,-9.727561849122711157e-01,-1.824646533971065465e-01,-8.115242206980749495e-01,1.775857297739818152e+00,-2.455853775171545628e-01,-4.547370849684579386e-01,-5.210610492636116309e-01,-2.422360126083250853e-01,-4.291712546712984633e-01,-6.761676764598768541e-01,-1.409175386079010162e+00,-1.282601227119693377e+00,7.620012424401197970e-01,-1.067721833818749744e+00,-4.951597512017982261e-01,-3.100289153615607973e-01,-2.324875607405763600e-01,1.239445116383831591e+00,-2.286213231051954509e+00,9.430877047943950209e-02,-1.194543817164421817e+00,-4.061369181189437572e-01,-5.642224991953911362e-01,-2.658721693452692492e-01,-5.027545232212820014e-01,5.501349191735263044e-01,-6.375852644910097178e-01,1.722803965796301240e-01,6.803408380226203533e-01,-6.700929774597149668e-01,-2.781829882046629732e-01,-8.350459852390316184e-01,-1.342252174573732804e+00,-1.515255505746574860e+00,-2.054020149377545346e-01,-3.373289986169448196e-01,-2.998041572927871434e-01,1.702930969380667126e-01,-1.699686174095446978e+00,7.156141154128002890e-01,-2.797483727058122094e-01,2.917203384974793035e-01,-4.275180719868827417e-01,1.075588412243575070e-01,6.222774771402785898e-01,6.441961612672775228e-01,-6.752607214274398695e-01,-6.951378971929830231e-01,-1.863442393314518108e+00,-8.407135380012682735e-02,-7.817598086379781153e-01,-4.913404905010569923e-01,6.350763661413328931e-01,-3.469302599200240200e-01
1.886245207012970104e-01,-2.127405893998466913e-01,9.686404779732663561e-01,-9.728117584568424236e-01,-9.128480523138098324e-01,6.087538057945283132e-01,-2.031271515368546499e-01,-2.588125042262296449e-01,1.659525079494302835e-01,4.124293624801038116e-01,-4.943742551940568108e-01,-5.781676016790751049e-01,6.586903259997604898e-02,-2.946860763837597097e-01,3.023216727977298679e-01,-1.931209513933541677e-01,2.042299213423166837e-01,3.044660076341247912e-01,-1.020808127190764081e+00,-3.583022488951306816e-01,4.582215637734024516e-02,-3.601114336279506722e-01,-1.118419856080448804e+00,-2.049257478320589965e-01,1.363382849117357631e+00,-1.166048834276276258e+00,-5.040769367667040646e-01,6.614727772121797855e-01,-7.173391492339228903e-02,-5.455481609987161695e-01,-1.547844044044821288e-01,1.660148584943577310e+00,1.201622342647606090e-01,1.214154933907520828e-01,-3.905358293794133906e-01,1.514791371000393738e+00,1.532026061593285415e-01,-4.206411449984210349e-01,2.495165017780849870e-01,-6.045006042533382917e-01,5.193234674039461096e-02,-1.368281685569710526e-01,5.870296895101159013e-02,3.728126399757754061e-01,-2.985244992914537487e-01,9.878354852521278873e-02,-1.909689711737599938e-01,6.152117623532198792e-02,-3.943427345914674587e-01,2.543207904057640523e-01,-1.950237906215812056e-01,-2.477827620465278824e-01,-9.107681687246799163e-02,-1.436122596290033249e+00,2.315243643679451235e+00,-8.372109885559761988e-01,-1.722107974739697095e-02,-1.089164317432621987e+00,-5.351678761558019692e-01,1.521712837613712788e+00,-2.531684215521963210e-01,-2.691801495682049628e-01,6.540767963626771264e-01,-4.866916528255841451e-02,-1.230785698747855900e-01,-8.819575618000875528e-01,-2.361429402698494995e-01,-1.435667152831799354e-01,-6.591936877587874222e-02,-2.212159933208255602e-01,6.143128717085998280e-01,-1.739550744988528130e+00,-1.523490002455507586e-01,-5.567304316981283030e-01,9.665711679865699457e-01,1.207127525481034719e-01,-6.384255896944774911e-01,-2.766932491969250618e-01,2.954835930735667526e-01,1.455969552303521652e+00,-6.507789458544275263e-01,2.313562980062759591e-03,8.454513871112719903e-01,-2.761309624392190853e-01,2.067042854354417702e+00,-1.158841847949271475e+00,-1.708592286726206833e-01,2.207599159631126184e+00,-1.424531079013158008e+00,-2.859061043051346340e-01,-1.464465137696691732e+00,-2.044873736322449231e-01,2.030784854209655155e+00,1.048789749606868993e+00,-6.896810170057263711e-01,-1.096823267562937909e+00,-6.724189815386373281e-01,-2.101165862185033484e-01,-9.342543588164580193e-01,1.752094982485631780e+00,-9.680758371179459809e-01,-5.268521448170477850e-01,-1.049211034708014578e+00,-2.189463194350722286e-01,-1.514963745142120788e-01,5.362895513401332304e-01,-1.232306815627146390e+00,1.660442353932351789e-01,2.246127178449942030e-01,1.694263525039535256e+00,2.186946628001254778e-01,-6.177745387422154399e-01,-4.376405012935943861e-01,1.943540851854549389e-01,-2.374256659107769618e-01,5.703196642352383744e-02,-4.360802539483523699e-01,-2.670358871049353655e-01,-6.110827115619613670e-01,3.598133406569396509e-01,-1.696047210687409712e-01,-6.079304444653598205e-01,-1.365232469843959739e+00,-3.792387029208298954e-01,5.779293130496182540e-01,4.610893682743887334e-01,-4.716795752457920710e-01,-1.034369396205790936e+00,1.228074310582039308e+00,-5.363246495782303391e-01,-3.998555095495345824e-02,6.138913304908033552e-01,-4.464730194574235700e-01,-3.868310449492251002e-01,3.089552682525777971e-01,-3.002013283891592499e-01,1.386591033176328924e+00,-6.315329615958892306e-02,1.522260011607345365e-01,-1.008187231185185134e-01,-1.206667842790612344e+00,-1.205974217673675963e-01,-5.639502430521212833e-02,-4.898124695985676680e-01,9.394268686776351407e-01,-1.027955082492655103e+00,2.169032762380687929e-01,7.060993997145345244e-03,-1.666347884826233861e+00,-1.793738555691445080e-01,1.882235637343278700e+00,1.689371073480800733e+00,1.794532429381810457e-01,-1.639182125720207994e-01,1.258594780327530471e-01,7.503278310419634334e-01,-3.683171756487303439e-01,5.168716813887764411e-02,1.760347506510341609e-01,-1.200717717736682344e+00,-1.221010264060495704e-01,-7.501672974237602043e-01,2.064529778963954953e+00,-2.555316666112174007e-01,-1.587222231639592307e+00,2.621004858799595438e-01,-4.744102094230571165e-01,2.134915593517388022e+00,1.146381848523073899e+00,3.221468998987445098e-02,3.333844211350164288e-01,-9.406998102176731269e-01,4.589486362645601725e-01,-1.316449223103694499e-01,-8.464150931911265663e-02,-3.244358577915409381e-01,6.255729972743079292e-02,-1.443693875229898615e-01,-6.772705398824746537e-01,3.273703001727327200e-01,-8.354280912919380409e-02,1.514401786678571948e+00,-1.347893363760347407e-01,1.222915878734485595e+00,2.825598419986323218e-01,-1.940845435787637574e-01,-7.645208092004321943e-01,-7.613464666861924357e-01,4.383469305768011859e-01,-2.342398499797594333e-02,2.091042583876681349e-01,2.180116842027709778e-01,-2.169982276474241800e+00,-3.551151076694595843e-01,2.381620195201124557e-01,-1.409824184012281600e+00,7.394609352508529909e-01,1.382798620702795134e+00,-9.901287495841751829e-01,1.257494413873993244e-01
-1.583379268047456767e+00,-6.597968577913013721e-01,-7.919556843977170191e-01,-5.238605809709081518e-01,-9.942249568535370674e-01,-6.844089733324582037e-01,7.595047033086672894e-02,-2.920697578819311802e-01,-2.531031608190985605e-01,2.031673798422374055e+00,-3.611273050535380724e-01,-2.199037385599438565e-01,9.160409664976318922e-01,-1.649172714763853298e+00,-3.200526272058651922e-01,1.426615749165635327e-01,-3.615726112830970895e-01,-1.530073495611309786e+00,-4.419441227090037949e-01,-7.352350688075190259e-03,-1.087206408517310319e+00,7.106815776845673005e-01,1.014070142393775908e+00,-2.811457050967725024e-01,-5.108281347890946122e-01,2.053787775953071215e-01,-4.421995584075806840e-01,-4.615730635668247039e-01,4.329189872043621296e-02,-9.953020430236956262e-01,-2.753725302540202535e-01,-2.847627098304842952e-01,-1.659301487948874332e+00,-1.397241521672562808e-03,-8.668830031662659863e-01,-5.742014190856012390e-02,-1.532322304800938451e+00,-7.099278594840148504e-02,-2.591521515184254665e-01,-4.187140015384853142e-01,1.753799338179233280e-01,-2.292374981152793367e+00,-1.055301793577052116e+00,-1.503785559343722156e+00,-2.218333949098752200e-01,-2.611983969914239423e-01,-8.726951552123203282e-01,-1.028168611560498213e+00,5.971646744015354225e-01,1.259455659947142925e+00,-1.837168878295441843e+00,1.900046840805375004e-01,-7.778006651474022037e-01,-5.682715166628081738e-01,-1.136158064598551176e+00,3.708511875563241800e-01,-3.866621881317350989e-02,1.554052306727905286e+00,9.672722654532748265e-01,-1.237753992436645481e-02,-1.049650029486822511e+00,-1.279605917309823981e+00,1.297902869744805843e-01,3.581808136783415364e-02,-1.265311134905970358e-01,-7.792929592310537945e-01,-6.094433268846601026e-02,1.825953927738701568e-03,9.700063834727895573e-02,2.359820237699565837e-01,-2.878982444279719055e-01,6.158244238048249386e-01,-1.476384276745280055e-01,-7.097353445730819610e-01,-4.597466487753423259e-01,1.042256096612138805e+00,-2.754718387830417115e-01,1.155283032452797572e-02,-5.242437959798358360e-01,9.611904259860610811e-01,-3.115122546147274796e-01,-2.655508288480163070e+00,8.020519752988085616e-01,-3.521815698071204537e-01,1.341315669593161342e-01,-1.916729840130084517e+00,-2.437058832044077666e-02,-2.461436067240902748e-01,1.386482724870136823e-02,1.462747247828728170e-01,-1.047086766416461590e+00,-8.432759294975722408e-02,-8.322603845431961744e-01,-1.734302394767346378e-01,-2.641507332633383331e+00,-2.288817507179385036e+00,-1.750109642158487855e+00,-5.641480318080075440e-01,-5.864892346863554984e-01,-5.714125750936920323e-01,-5.183473994492145964e-01,-1.243416247683245546e+00,-9.496131772738429511e-02,8.650311162796727738e-01,-1.471790914109334603e+00,-3.839473845120345424e-02,-4.819893781014703005e-01,5.060727575075558704e-01,1.326789890141949257e+00,-6.844412178460695939e-01,-5.602812955562888053e-01,-9.940415056565150564e-01,-1.325948755940341561e+00,-1.137255496958732071e+00,1.239585578440491664e+00,2.696760758217293663e-01,-8.125528336735652335e-01,-2.305472468184805238e-02,-1.429654578414601751e+00,-5.830642884857865395e-03,-1.209413152024332860e-01,-1.953298911775660063e+00,-4.078085126430194829e-01,-4.697671989042756513e-01,1.890945252156815137e-01,-4.834991412722069448e-01,-2.417739573054147328e+00,6.004814237203607297e-01,-1.648519252403395641e-01,-6.999527633645380442e-01,3.985475682554900229e-02,-2.022457090799404611e+00,-1.315053856790118214e+00,1.343544176173734062e-01,-2.008599792295184372e+00,-1.444871301697103760e-01,-1.641510983862680906e+00,5.934514169514601249e-03,-1.632077019810774382e-02,-9.388907011522301671e-02,1.238415745929231093e-01,-3.924764569802055569e-01,1.155817676268594968e-01,6.283695657226451292e-01,-7.450102932528523958e-01,-1.852842542837193074e+00,-8.591199664131576874e-01,-1.187691789118042185e-01,-2.170175776228417508e+00,-6.054258299883460426e-01,-8.176237636928596064e-01,-9.358219860427322567e-01,-3.873419450397229125e-01,-1.273550317229866780e-01,-1.574304207244186182e+00,-1.455979372800916716e+00,-1.177883759819641440e+00,1.400776928778982647e-02,-6.097419956537878383e-01,-4.273473356178407734e-01,1.226090253560941257e+00,1.039956237853234683e-01,-1.065456888492363197e-01,-1.659964648502375295e-01,-3.137216712356837078e+00,-5.432944717159504666e-01,2.578698853013012271e-01,-1.033262239409726169e+00,-1.201149660353840742e+00,-2.296695899517772199e-01,-2.758079106163178196e-01,-4.697823558258658605e-01,-1.897437682100026057e-01,6.163971192256308129e-02,-1.789787863351666175e+00,-1.272614666991907506e-01,-2.362541194803988442e-01,-5.017249758028592410e-01,-8.367506175916149536e-01,-1.175028813078467849e+00,-4.101685512447998672e-02,-1.648127595904114617e+00,4.664812306934429387e-02,-4.462188054694617989e-01,-2.719046458221185070e+00,-3.004563205787326163e-01,3.262981599640385477e-01,3.665780109957566535e-01,-5.456271863657817800e-01,-8.206556278581576824e-02,-8.122000891958508495e-01,-9.384506385992320565e-01,4.801180312318168997e-01,-9.667118121336069070e-01,-1.005668575778462470e+00,-6.981697318044451928e-01,-1.213215784805634856e+00,-1.795784031691553873e+00,-1.114199592923738713e+00,1.806246942878586004e-01
-1.374408580745548392e+00,-1.583214917361778773e-01,-2.883978031314240464e-01,1.235020257367710261e+00,-2.857018310318939047e+00,-4.474781064619537396e-01,-1.524675945789673859e-01,1.192681840754486189e-01,-1.032598254277393574e-01,1.618827405041938505e-01,-2.268322263505747061e-01,1.700597436759737069e-01,2.889921199393065132e-01,-6.192061838647735517e-01,-1.393941999704640722e+00,2.120264052255227849e+00,4.134054442282329017e-02,-1.847542520233646179e+00,-4.111424902794338365e-01,-3.410302359995875943e-01,-4.308656983395653950e-01,1.994207706724250018e-01,6.400996463292694116e-01,-1.669420409315526266e+00,-1.451605063318968103e+00,1.579488459944549783e+00,-8.294862587177048718e-01,-6.615830060962746284e-01,-7.562278104764043329e-02,-2.442626934328448574e+00,-1.468688980540417965e-01,-1.301935423127461799e+00,-2.465448097144207651e+00,-3.340717695438609192e-01,-9.875818008949226456e-01,-8.841953949771714782e-01,1.586165871989888121e+00,-2.043731982931389357e+00,1.175770316402353410e+00,9.963745772513711296e-01,-6.634502762306163093e-02,8.202757749169259371e-01,6.281760122381017108e-01,-3.040661470713076908e-01,-2.030014705588559787e-01,6.030834026578037882e-02,-1.341520581974701420e-01,-2.623491015461267839e-01,-1.111905030097909197e+00,9.264287534934797508e-01,-1.483462587576041436e+00,-2.763678696573710347e-01,-5.061501656683926598e-01,-9.953772927876268772e-01,-1.916967814265064129e+00,-2.653499796432827462e-02,-2.689365988742212221e-01,6.918667707772974129e-01,9.678367426306824228e-01,-5.587253504384165348e-01,-1.179963618224734445e-01,-1.319465759540372041e+00,-1.519931890893710502e+00,-5.397067459244382359e-01,4.161033533068796142e-02,-2.210540070476740837e+00,-1.631579356007631654e-01,6.613986722222597869e-02,1.190847626838717199e-01,2.967026229745145516e-01,1.058691833614100242e+00,-2.054331428897532563e-01,6.026555669474709109e-02,8.871882839828618694e-01,-1.566877480035993253e+00,-1.863664463932394932e+00,-5.070356537267692865e-01,-1.006841434236656341e-02,-3.942419097541612905e-01,-7.522826937056339425e-01,7.460607402507530850e-01,1.156692190066524573e+00,-1.648119714354415066e+00,-4.530908376386615782e-02,-8.498812332057581465e-01,4.542001391548973754e-01,-2.854165884516803031e-02,-1.253276870362379114e+00,-5.526008822186300184e-01,-4.064097358561077344e-01,-7.051080969674530241e-01,-8.404954486502302924e-02,-2.327093243520429677e+00,-1.601634400900005251e-02,8.933789378844909645e-01,-3.950939948399052881e-02,1.798464467006226919e-01,9.622910452747521215e-02,-3.132843523926631124e-01,-1.905437043863117186e+00,-2.057610970320596089e-01,6.199605989163529118e-01,6.160022655880773579e-01,6.453997919097685942e-01,-9.213217639195366848e-01,1.345741074180092145e+00,-1.205012751506370217e-01,8.065207174129467027e-02,-6.120899564135655335e-02,-8.927134173669749595e-01,1.663021350738882242e+00,3.834494579645497114e-01,-1.513738411710127796e+00,-1.127511466772141313e+00,-2.345874507393221453e+00,1.414845515989434852e-02,2.324014759423227994e-01,-3.208213836033644295e-01,-2.329860961489772508e-01,1.409063648380229350e-01,-4.430507381792490595e-01,2.773596085832195635e-01,5.416702433242966963e-01,-2.509407226665577584e-01,-1.969439326000099078e+00,3.283101723445848164e-01,-6.934827372428453707e-01,1.498554855151961948e-02,-2.286127228473255335e-01,-1.068992824941996878e+00,7.380464448256766896e-02,-2.195860028789208940e+00,-1.652859548268560685e-01,-8.177460610327956514e-02,-2.320771038774858686e-01,-1.632000952938886806e-01,-2.565070661499341487e+00,5.380940692853413559e-02,4.048984665326045562e-02,-3.211413081574280293e-01,-7.768464120854029487e-02,-6.969049392018877853e-01,2.055224558963965054e-01,-8.619973814646241239e-01,-1.063364567706705177e+00,8.386505347316795811e-02,-4.108602536852984377e-01,-1.869285641235372275e-01,-5.357492829723021766e-01,-7.163283770754317326e-01,2.396088035039261599e-01,-2.182061782620090540e+00,1.033811236633318753e+00,4.505769951241132831e-02,-3.722314321256747216e-01,4.575245233366770914e-01,1.565523513569696323e+00,-5.837038933448145395e-01,-1.503508324498055992e-01,7.798473710895048594e-02,2.530492946926331532e-01,8.355549182615561454e-01,-7.594145833583653138e-01,1.531729948859757329e+00,8.282642512824953673e-01,2.097918880277689357e-01,4.707219520854695749e-01,-4.599921950122310976e-01,9.970372159505024312e-01,-1.627248030028765058e-01,-4.048493944442010939e-01,-1.970824554123465022e+00,-3.723807124751000730e-01,-1.116842980149262421e-01,-1.097944740234973793e+00,1.179337883921037639e-01,-1.808435530699544491e-01,8.351254946688848602e-01,-2.755710841962268343e-01,7.023672973058255053e-02,-4.054010908214886189e-01,2.331103520761528269e-01,-3.643802665369786416e-03,2.583649417457247188e-01,1.151224571905735905e+00,-5.062021931168286804e-01,5.534008275793237397e-01,1.630267036991776830e-01,-7.046040363215952951e-01,-2.194161431533647733e-01,-1.672989185231312792e+00,3.620718541368851406e-01,-1.670338880766156775e+00,-7.756826686125080084e-01,-5.191002070482884090e-01,6.407236557422563150e-01,-8.198815961318179912e-01,8.573713279884482841e-01,3.631276886416960337e-01,-8.045423968388815128e-02
