-4.583000403663595873e-02,-9.696824787878979834e-02,5.738104543983739078e-03,-5.208782078145701017e-02,-1.196088939259223327e-01,-9.134738648168164166e-02,-7.363746957794389814e-02,1.368829870764761911e-02,-7.132723537587959406e-02,-1.463605549621199362e-02,-2.417295245847805515e-02,-3.574081388894704420e-02,-4.110469430575707656e-02,-3.633063957150938633e-02,-4.390096797553381253e-02,-7.276231366135554879e-02,1.840037190667436970e-02,-5.822599022011299558e-02,-3.176000333560542038e-02,-6.637423419983581874e-02,-1.263177154534305888e-02,-7.143980642633634970e-02,-7.596170023205905952e-02,-1.386066846379267054e-02,-6.383735144084004554e-02,-9.568358755003641969e-02,-7.782861612918934302e-02,-1.018778375737650621e-01,-2.835985062213198724e-02,-1.458093623232645797e-01,-5.841767335569341552e-02,-6.747690206115816713e-02,-1.158190103391806836e-01,-1.469317066280588155e-02,-2.972054525639329994e-02,-9.106242932757506459e-02,-1.092784790235802189e-01,-5.653873977572815290e-02,-6.805889952477071903e-02,-7.909963052560231578e-02,1.652301639731361751e-02,-9.343976915975442388e-02,-7.507929698990471745e-02,-9.551045930615455204e-02,-1.048613737457942674e-01,-4.107549612709641973e-02,-6.075129555389646024e-02,-6.857981741376863172e-02,-5.117865845669838237e-02,-7.052518434045094986e-02,-6.018595574846677398e-02,-8.763416904789600448e-02,-8.081599119989624214e-02,-1.379225070333620073e-01,-7.154878976849307626e-02,-2.841191973615190061e-02,-3.420175036134590757e-02,-4.308676981412572909e-02,-1.938244722922347410e-02,-3.871733874951460014e-02,-8.672029073878266547e-02,-7.238062121833792328e-02,-2.878511224436152219e-03,-9.961346310148727623e-02,-1.037792179785440028e-01,-7.524682021534882803e-02,-8.931143338051708569e-02,-1.170482394013476896e-01,-1.887787669746457120e-01,-1.666642142980314656e-01,-2.606348776287096269e-01,-2.480169092960993471e-01,-1.756354130123507773e-01,-1.393585689132084138e-01,-1.072350354067029415e-01,-1.046580824481360833e-01,-6.935117201669833975e-02,-4.934352047393513602e-02,-9.760768410367208492e-02,-7.683307658191997069e-02,-1.001972719925796063e-01,-3.935736516461671441e-02,6.458760656320036708e-02,-4.781895137883864638e-02,2.882251107698060102e-02,-7.386755190885496702e-02,-9.493624558589597306e-02,-3.247123117148279642e-02,-2.797736884545330358e-02,-6.098767823962431001e-02,-7.070032412520560472e-02,-8.963804433187011478e-02,-1.463255414885619443e-01,-1.104105164737782113e-01,-1.691452903297538113e-01,-3.657602679359898690e-01,-4.245806964280613993e-01,-5.763421455848589670e-01,-7.820100020852279732e-01,-6.725349091885226560e-01,-6.987935586008291455e-01,-3.436856126637276021e-01,-1.288415084215299711e-01,-1.580893709083330545e-01,-1.566426155642234308e-01,3.018715666748166340e-02,1.791992061129146774e-01,-5.566626466011018182e-02,-1.129928213530981967e-01,-4.982646999046992653e-02,-1.548727638263659202e-02,-3.965411598622349022e-03,-5.275447018761934143e-02,-7.999342631020460448e-02,-4.872781792200153728e-02,1.015820167482982522e-03,-1.384551278864767920e-01,-7.608134071824787514e-02,-1.099573204374846291e-01,-1.937458654719644291e-01,-3.320832789181745182e-01,-3.240167572322729672e-01,-4.734193236984764463e-01,-6.672559076458496330e-01,-7.264727924585606678e-01,-7.500492999828733964e-01,-3.774667504327485212e-01,-7.509220400784720473e-02,-2.210577084863983299e-01,-4.829785597273135722e-01,-5.355645017915400263e-01,-5.364592026297753113e-01,-2.207985128497681193e-01,-1.774319364282632705e-01,4.492571450154626139e-02,3.093984320435906252e-02,-3.751234142302707630e-02,-6.778580359577662806e-02,-6.215400122480229522e-02,-4.770510590398282375e-02,-8.411187665302680139e-02,-6.036688733448597119e-03,-6.309427270873574356e-02,-1.187381073650456420e-02,-1.002960417879191629e-01,-1.654075605469230159e-01,-2.353647862952092107e-01,-2.595058891929148404e-01,-3.098198898598759632e-01,-3.895223106016743042e-01,-6.071731118590721898e-01,-4.681268709662013694e-01,-3.369623204772766445e-01,-3.489916951836393166e-01,-1.124708122502678792e-01,7.854183569922902619e-02,1.970364785976227995e-02,-1.743454597449383414e-01,1.262194721193205527e-01,-2.274517751837813462e-01,-3.581600995298938606e-01,-2.583096900541440727e-02,1.007067468981713426e-01,1.816090787877371326e-01,-1.101091523938494549e-01,-1.078613539490834994e-01,-5.878672809442378466e-02,4.440642617822963974e-04,2.723011397447865859e-03,-7.689704176769131261e-02,-3.667476545251871500e-02,-2.846374545690050911e-02,-1.304112031673954342e-01,-2.525530124052653980e-01,-4.424606152228406364e-01,-4.699669624861748107e-01,-5.333696069761241221e-01,-4.857558169035800510e-01,-3.928546928310931996e-01,8.869712719763406250e-02,1.216770957140460296e-01,8.012819924316598452e-02,3.156445148480439833e-02,-2.484535076237954498e-01,-1.177029480706683479e-01,1.384365438505577306e-01,-1.232890879343488399e-01,-2.464827585705028912e-02,-1.386921456071542047e-01,-9.003138532775198030e-03,-9.851101995098378306e-02,-9.833428990404025072e-02,-2.228640022196304304e-01,-1.111925773094529085e-01,-4.135049321204342654e-02,-2.917297609855592794e-03,-1.199595250760774889e-01,-3.636562098966925755e-02,-5.939251076726485140e-02,-1.099664617792871085e-01,-1.681125059110005204e-01,-3.197432088308763132e-01,-4.788058689643519550e-01,-3.767532848006635571e-01,-3.327691467166910000e-01,-3.440069517122132936e-01,5.135077807226415963e-02,1.771119138020637862e-01,1.692044757011658684e-01,2.564695793530106793e-01,-2.190111503102434298e-01,-6.179168381130095700e-01,1.671228117864182461e-01,2.895777945912162976e-01,2.896680323444049687e-01,1.515885585192144891e-01,2.883298862492642695e-02,8.879436415098883317e-02,-1.644854815588225050e-01,-4.131878638031739603e-01,-3.910830558859138550e-01,-1.142883654663819498e-01,6.749863602697923903e-02,-5.631880269819034696e-02,-5.706078374840889075e-03,-8.283549230241743500e-02,-1.124679850898803873e-01,-2.696754559025928977e-01,-3.283319667369147266e-01,-4.830783079138291636e-01,-3.843316366363469516e-01,-1.884458361221900274e-02,-1.126083828762414196e-01,-1.757327169873016959e-01,9.100441163175164438e-02,2.299477181210211607e-01,7.613609050521862043e-02,-4.453661582304598299e-01,-3.264076237666911351e-01,-3.547483518895636068e-01,-1.394928981087532882e-01,-2.609655412976531474e-01,-6.676306942967116798e-02,-7.996588619975980583e-02,-1.464999868360816748e-01,-8.957138277779176649e-02,-4.734053931932634407e-02,-5.724786631282778593e-02,-3.902412672982876751e-01,-1.456983054087890861e-01,-1.955714572886992769e-02,-4.955524812600460571e-02,-8.592655118185424379e-02,-1.278899902164632174e-01,-1.239028492247899460e-01,-2.355327510833929439e-01,-4.350031677915342510e-01,-2.782523303710552898e-01,2.108976275964927552e-02,1.682706365142425664e-01,-9.392872492439198473e-02,-2.709952537369694769e-01,5.066293754841012797e-02,1.557081831549979589e-01,4.810728027752432800e-01,2.501287938309039727e-01,2.056132552240244882e-01,1.756550599691830139e-01,1.834838685358722854e-01,1.923929974248566321e-01,2.810258100202412956e-01,-1.406230415471353412e-01,-2.110833922875652024e-01,9.590360386792740055e-02,3.344023493919379836e-02,4.314412197975105168e-02,-1.170831622310303799e-01,-1.013723392727753671e-02,-7.066745189610609823e-02,1.085495126246409023e-02,-5.133105121881698096e-02,-1.250484158772043053e-01,-2.187215293379510539e-01,-2.819123600106379635e-01,-2.426211528782759586e-01,1.774277098348595871e-01,5.105117131616468962e-01,2.148370753190154414e-01,-1.028308624237279506e-01,-4.179608469388712555e-02,1.041747726201992102e-01,5.783077739998878641e-01,2.687874144786098762e-01,4.937117551629791601e-01,1.245216024286668888e-01,7.083709943002696428e-03,-6.419671896631874430e-01,1.479658859905160495e-01,4.587791555169914992e-01,1.371534509878723773e-01,1.755035325116170997e-01,1.778934823644897079e-01,3.041495903114907820e-02,-3.417564888327643408e-02,-8.272134479396085760e-02,6.837419260182699132e-02,-5.062801658856053849e-02,-9.227544721879437153e-04,-8.246585617436254234e-02,-5.341077992160342403e-02,-1.468711543439407408e-01,-2.227272106595442613e-01,7.235148633189654455e-02,5.166562146353712581e-01,5.985343928425966853e-01,2.095047292739928568e-01,-9.018510560305686985e-02,2.810057918813035349e-01,2.318927560195243320e-01,5.919766655685847478e-01,6.171065718765317287e-01,4.295368930758359793e-01,1.600814906431097598e-02,-2.463139214451681991e-01,-7.009690497703194856e-01,-8.375696290640853581e-02,-1.079591680055287106e-01,6.335060233722501766e-02,1.495740605629912734e-01,-9.940461130696937042e-02,2.743818636259459914e-03,-1.750532414755576749e-01,-3.768584930589472526e-01,7.212460495145681105e-02,7.944744651859979301e-02,-3.682736074813750069e-03,-7.256973156589583210e-03,-1.167905095360677048e-01,-1.315873601866636433e-01,-2.454183226780664862e-01,-5.092534347629978225e-02,7.037051226787426061e-02,4.013257391578837208e-01,5.357149973110774122e-01,6.702956801008678189e-01,3.349625082502368234e-01,3.717401855943950340e-01,1.630005674044417430e-01,1.552814212102198999e-01,-6.596992170339851524e-01,-8.488339181869771766e-01,-8.232128356963351878e-01,-8.194429272868211100e-01,-4.672304888781284027e-01,-3.123806535256473671e-01,-1.455074612162981784e-01,-9.849874543488625067e-02,-3.196610045289815516e-01,-3.093985210406604014e-01,-5.049312286807099426e-01,-6.079994513866977535e-01,4.664591420201023159e-02,8.663064419063573607e-03,-7.035931161040850923e-02,-1.211599658057619690e-02,-6.905358342479125944e-02,-9.697702674898353581e-02,-2.743547274324857899e-01,-2.263714559620246258e-01,-5.863220469517148314e-02,-2.530448278981454191e-01,-2.210088386895611157e-01,-2.553639561319439588e-01,-7.681298216714624871e-01,-8.210770972642796872e-01,-8.754908626923428860e-01,-1.315694563377288295e+00,-1.540741446125280634e+00,-9.806008981331808538e-01,-6.516428501661404304e-01,-6.452318721618561792e-01,-6.570686979819595486e-01,-4.218655148555158219e-01,-4.766239954976632109e-01,-1.713145774726506643e-01,-5.702070434501556040e-01,-4.042955996584561285e-01,-6.000640663611213066e-01,-3.663765015322423269e-01,-1.256625325243029556e-01,4.897501696818404478e-03,-7.629247941426917090e-02,-6.861927635537071191e-02,-5.862232261310009601e-02,-3.938561045119545745e-02,-1.995073629715743702e-01,-4.378830347438380510e-01,-6.841043128657822159e-01,-9.244311662382285188e-01,-1.129895433435188057e+00,-1.327982659700152279e+00,-1.551633221493698311e+00,-1.527689471047004144e+00,-1.377051144870625743e+00,-1.068245315466640699e+00,-1.034489239725985499e+00,-4.924535635777432252e-01,-6.290359909026384255e-02,-3.449576158664939274e-01,-6.428626112683144544e-01,-3.006786327599848541e-01,-5.027864636299465007e-01,-3.524167058783370665e-01,-2.724587338803866055e-01,-7.819912733368657165e-02,-3.558731267130491593e-01,-4.223500952487532212e-01,-1.194527620572132659e-01,-7.797445035092334664e-02,-7.828336467096697060e-02,-8.013446388872458304e-02,-2.030693020722646944e-02,-4.022990712260258311e-02,-2.833812073602303139e-01,-6.572650699929434293e-01,-1.016311617048567539e+00,-7.739672129524306499e-01,-1.126301689518074411e+00,-1.067581167690450306e+00,-8.609151521140331331e-01,-5.221562272112393321e-01,-5.860264139246456477e-02,2.484180843233689540e-01,1.863707684474152637e-01,2.028472466700909083e-01,-1.031563377545734739e-01,-7.230086976194204096e-02,-1.762806803040182502e-01,-1.386310603640692751e-01,-1.521956595885090857e-01,5.006837797981712745e-02,1.212381778133787419e-01,-1.133104458932565756e-01,-1.793002525688567605e-01,-1.715657436758665499e-01,-3.362213267634527741e-02,2.545364579624546236e-02,-9.332318321982308040e-02,-9.083758976022152098e-02,-2.000847720398105448e-02,3.458212628294402707e-02,-2.606360413185231373e-01,-5.497771000234196181e-01,-8.341778210082120282e-01,-6.237347664820813709e-01,-5.831735671967925860e-01,-5.537953112388886989e-01,-1.685880297861956922e-01,9.495906268202823630e-02,3.743365913714201132e-01,2.769065920908650447e-01,1.216698508987440336e-01,-1.771496342412632041e-01,-1.721548456950123540e-01,-1.008259303707223359e-01,-1.560485412382012771e-01,1.790092431598263312e-01,2.941114982149958812e-01,3.451430832841169138e-01,5.376532463328161926e-01,2.555365940793675184e-01,3.768925854775243001e-01,1.452970877220066126e-01,6.088322597101043093e-02,-1.104331742429327801e-02,-6.459539359796841185e-02,-5.354163091091527354e-02,-1.204847779533906385e-02,-5.945331967589978506e-02,-1.729821549755604093e-01,-3.356206010270429974e-01,-5.004868771157204854e-01,-1.785718341486370875e-01,8.578041230925952110e-02,3.526182658454456442e-01,2.028593723186241093e-01,3.768844030241825238e-01,3.275748409936228844e-01,5.352049123778479522e-01,6.516761038506435622e-02,-4.415263017250437017e-01,-2.723439543701097199e-01,-1.961429037213006932e-01,3.048760001077659987e-01,2.767860223723157542e-01,-3.334613700189826835e-01,-1.650542102720153892e-02,3.933336941423346556e-01,-9.367115317497205773e-02,-2.035801880484324963e-02,4.105533353625790555e-02,8.540878371129458080e-02,-2.871515393267383073e-02,-4.987753994063993945e-02,1.316043554578055080e-02,-9.300625218805487482e-02,-8.477962233042053708e-02,-9.022566509513443855e-02,2.168997190749658716e-02,-7.551383493412355818e-02,2.001905747031418048e-01,1.519260277768367806e-01,3.349368376711091277e-02,8.997406419925869578e-03,1.965544280141637012e-01,4.173377321976386445e-01,1.345122822496766513e-01,2.337269415484792279e-01,1.325775686353150296e-01,8.646420648733510461e-02,-4.683659306574720210e-02,1.158988684585056383e-01,1.596372608584726016e-01,-3.113032219509653253e-01,-1.665825187243838434e-01,1.895459630117352356e-01,-2.960386762186890119e-01,-1.809887266676320217e-01,1.182670947108118015e-01,8.509603752959822576e-02,-7.577188498393667981e-02,-2.439471063986400207e-02,-6.388872073583332090e-02,-2.847136778515073699e-02,-8.456966169820422097e-02,1.037977223511628300e-01,3.210004406222374262e-01,3.273636502898459762e-03,-9.009216270200816334e-02,3.483096507184398338e-01,2.021725535384653327e-01,-1.929285318580813702e-01,-5.376197571854141044e-02,-9.831890941437128328e-02,-1.463491469226664843e-01,2.371308193569227341e-01,3.733891194691389970e-01,3.306008064322370488e-01,-1.161124725196737845e-01,-3.826128822860540984e-02,4.817565957637819779e-02,-8.156104081803474543e-03,-1.932931238549735753e-01,-5.251244074705557069e-02,-3.663609780797867643e-02,-2.862724273941101918e-02,7.631404334161288536e-03,5.004911657899370481e-02,5.221738951804370810e-02,-3.976900357189976781e-02,-9.785429185527416696e-02,-4.950057816216926754e-02,3.031118915346469114e-02,1.234327160178889937e-01,1.847900181093440342e-01,-5.224003935626962691e-02,1.169082465458812919e-01,4.760744249852567889e-02,5.643905807151616827e-01,2.436604935344765521e-01,-3.364519780684203654e-01,-6.225167307898758079e-02,-1.227502477098528361e-01,-2.293666625609372955e-01,-8.229128530506574224e-02,-1.793042510875526296e-01,-2.771511869374863046e-01,-2.579634294780674963e-01,-7.528122128687365910e-02,2.517574523646197715e-01,-5.077977860595612319e-02,-1.497373748822021788e-01,5.734043527300351252e-03,-1.117483214823266208e-01,-1.095010656965202250e-01,-7.903980950710479125e-02,-2.657418206951265433e-02,-4.343052179245101424e-02,-1.373241622907787549e-02,-3.801138379368865922e-02,5.212739812915617721e-02,-5.675640280150897471e-02,1.355609431246658780e-01,1.302675921204287934e-01,-1.690793451380206147e-01,-4.484303501257197455e-01,2.760113920160804368e-01,7.613206382909245562e-01,3.358995479430754716e-01,2.256405849462232022e-02,-2.971393017791897906e-01,-1.615654164480285482e-01,-5.613868082916415037e-02,-1.798924286294707742e-01,1.476390774268170059e-01,2.733254732574596502e-01,6.658141849775169041e-02,-1.699564702780883563e-01,-2.510896175182221746e-01,-5.382272225906758155e-03,-4.938792533329496026e-02,-1.072349600618174303e-01,-9.994548185110951888e-02,-2.661340675371421521e-02,-4.241165579392272567e-02,-4.255777150792815905e-02,-8.670585970316253832e-02,-1.017656384371029010e-01,-4.462251416128559800e-02,-1.802515685910966725e-01,4.733456869011184315e-02,2.439358136800461319e-01,1.815741587265015666e-01,8.084256722039209753e-02,-2.933307759374009435e-02,7.370739165726810649e-01,1.775091261467635628e-01,1.307531182885256771e-01,8.871297226580863657e-03,-2.275841737089943917e-01,-3.918987967977799469e-01,7.287736657474917779e-02,2.345621011407195700e-01,3.953821900718856308e-01,1.722908275596279626e-01,-7.332012121367370572e-02,-2.052128856196996920e-01,-7.006522286155076468e-03,4.874258482100740641e-02,-3.627412241387184544e-02,-4.807461163621359196e-02,-6.313352102671605792e-02,-1.334256186676069378e-02,-6.249489213740078153e-02,-8.325063764335824401e-02,-5.450325175761023405e-02,-4.372631198195987834e-02,-1.597829267411883872e-02,2.153398681382864832e-01,1.456162084654621658e-01,3.395077494562337983e-01,2.208917894183224373e-01,1.752025635265597181e-01,1.228673972800412018e-02,-1.714358289002254621e-01,1.485628535543365158e-01,-1.841326806930931870e-02,-2.729234396426858944e-01,-3.279433356393499088e-01,-1.002836068822687970e-01,1.760967748902548258e-01,4.620856449525511528e-02,-3.085000979261980428e-02,1.745836460526393463e-01,-8.910998621040409906e-02,-1.566771752099295756e-01,-1.233622642624023109e-02,2.078221054920359814e-02,2.614564168672988201e-02,3.384787367067802755e-02,1.277209655628670955e-02,-5.209140641506578018e-03,-6.384609946255967450e-02,-7.514071636309740954e-02,-9.575929234126059897e-02,-8.201808178247026182e-02,6.472934870516692434e-04,-6.880056991745975292e-02,2.949293944123288283e-02,-1.570852665976707127e-02,-1.837057111525342845e-01,-2.333309472123076267e-01,-4.235579225469328635e-01,-5.654070699196883654e-01,-6.555421916781040137e-01,-5.602487829336417757e-01,-3.845754087991331005e-01,-3.283419824089077177e-01,-2.261148408613098959e-01,-9.497860574815893131e-02,-5.584997369126259298e-02,-2.692795873107632978e-02,-2.221894196751139638e-01,-1.212999887207678179e-01,-1.039911705665658020e-01,-1.100461827184918496e-03,-2.200040526185233561e-02,-2.325833325895949183e-02,-2.231313358808774752e-02,-6.125820553483805192e-02,-4.717973453891063235e-02,-3.337225162555978314e-02,-6.713615036995815299e-02,-5.999486575158972934e-02,-9.155149252673745741e-02,-2.250650411392968453e-01,-3.929102505454433181e-01,-3.678452391882771066e-01,-3.971015141832878736e-01,-5.589114221498252544e-01,-5.036731977751414124e-01,-5.934546055203727688e-01,-4.208325875382686321e-01,-4.421732308677558954e-01,-5.587018409820095899e-01,-6.452816478382322751e-01,-6.288623987849044639e-01,-5.387609095735472753e-01,-3.093246248448593416e-01,-1.489575094756224183e-01,-1.499831063805407705e-01,-1.711839843298766928e-01,-1.367251890501015588e-01,-8.817662422493545427e-02,-4.394567186210074361e-02,-1.217747829802315884e-01,-4.161258494204094632e-02,-6.162428492246933148e-02,-1.652919308756076525e-02,-9.246762026561716752e-02,-3.806211984984871760e-02,-6.310155629816428802e-02,-7.567201273495451075e-02,-1.395189665878999452e-01,-1.985808552231582702e-01,-2.833950540639517679e-01,-3.279336242284607295e-01,-4.293370699023377757e-01,-4.115862946502190645e-01,-5.212054171670090774e-01,-4.682255928364777442e-01,-3.320899231396673423e-01,-5.199357664725079431e-01,-5.630508854029921961e-01,-5.806996676827745896e-01,-4.547474704566009107e-01,-3.469552925769117113e-01,-1.506765909271752524e-01,-3.157996081869723221e-02,-5.236253470096718932e-02,-9.860030571836976565e-02,-6.722037749500295312e-02,-4.161841629462354614e-02,-2.205786303686149002e-02,-5.690597263059040539e-02,-2.509533620287457759e-02,-3.186207344357778765e-03,1.782647257027983670e-02,-7.822440306658146048e-02,-1.801399426898192893e-02,-1.412288082395854183e-01,-4.987043394013862541e-02,-5.270193892522980622e-02,-6.509385079653913497e-02,-9.690274452336990196e-02,-7.628995315898902396e-02,-1.518378789610249635e-01,-1.509291816410709974e-01,-8.840466281513983948e-02,-6.568176236699721504e-02,-1.214093928071354050e-01,-1.458669742091480981e-01,-1.900972625212297429e-01,-1.697407225138323761e-01,-8.944803309178732398e-02,-1.445936521733583446e-01,-9.535914733909447993e-02,-3.134516143534877512e-03,-6.100938879984817154e-02,-6.747063306424401496e-02,-4.976241788476033073e-02,-5.989051149571272131e-02,-5.065583651532213488e-02,-4.491798913632546325e-02
-1.542388443454577318e-02,-3.547234246973721833e-02,-1.950288625624335345e-02,-1.482663592737850505e-02,-7.709194651417372590e-02,5.587457559715571301e-03,-6.286634393276266386e-02,-3.615795947145653694e-02,1.852056356722492705e-02,2.458348891438596681e-02,-2.253451143660913526e-03,-4.386351807565832400e-02,-3.573061037036539406e-02,-2.688016806758633873e-02,4.162837662995629712e-02,4.426561169153398617e-03,2.935753375418289138e-02,2.066349464922752691e-02,-2.220507546068349949e-02,-2.366116476999211363e-02,-3.717019922048126618e-02,-2.499674714362486519e-02,1.475543874635541070e-02,-4.394013552352008661e-02,2.818281258606452136e-02,-3.031563145070627699e-02,-2.083859956953803064e-03,-1.834678629368681133e-02,-7.126996098732124932e-03,-7.037704686096632467e-02,-5.279629951703522506e-03,5.463387757614878576e-02,-3.358386521581990108e-02,2.389503375301070889e-02,-4.423292021611275465e-02,2.007441102246902784e-03,-3.756877107210023631e-02,9.804666741316542949e-03,1.120859693597568880e-02,-5.370782225960768486e-02,1.218817441771203117e-02,1.035643793991066104e-02,4.472828423810076837e-02,-2.708435856461520810e-02,2.456535325095561551e-02,2.531741532941095447e-03,-3.595098261163674064e-02,1.502135331972227848e-03,-6.500402776274030736e-02,7.351635840386912257e-02,5.035892905133060315e-02,1.019488891265991556e-02,-2.726382131257637162e-02,6.164995053956603879e-04,-4.455672660414532887e-02,5.176622785458951520e-02,7.771099286911139874e-03,-3.180952020599486091e-02,-1.267047894242330150e-02,1.946142700932192507e-02,-5.008377682970620998e-02,3.210956789930197869e-02,2.545887986853152124e-02,1.522083390263386654e-02,-5.942737200531431063e-02,-2.037924396240935188e-02,-1.020383263836913135e-01,-1.365654963369671016e-01,-1.579869499521214041e-02,-5.583915614794131982e-02,-2.824437212339554054e-02,-8.976907949441571485e-03,-1.093977752346810967e-01,-4.788908906899198847e-02,-9.449815856604626418e-02,-7.250891765714133352e-02,-1.604699743439900149e-03,-9.992938942716796114e-02,5.106981557439720792e-02,-4.419881403861345912e-03,-2.344625698871522293e-02,-2.497789871998724182e-02,1.765121396766776776e-02,-2.825139085639256573e-02,9.076099844247054876e-03,3.689463341572913474e-02,-2.138845480827535062e-02,-9.285323142780640970e-02,-8.010120876742515827e-02,-8.894515759487291173e-03,6.948934272514500909e-02,-3.480684189752066005e-02,4.286578242496140445e-02,-3.617965256037251193e-02,-1.027502889642207227e-02,-2.125167824952054613e-02,2.209112163440010018e-02,-4.422587418482266247e-02,-1.403605223495084930e-01,-1.549555115484315404e-01,-1.536184129417540734e-01,-1.655448158484091881e-01,-1.041720659157788775e-01,-2.084007955044879512e-02,6.336900264651925720e-03,1.242684466070688616e-02,1.285483674500034063e-02,-5.632089717363368553e-02,-1.072885946637254784e-01,4.588904792259541204e-02,1.992264452877411801e-02,1.106262574569691001e-02,-1.076984173136283363e-02,-1.963105594726936506e-02,-5.142651872266837398e-02,2.173903711756711155e-02,1.418202237249228254e-02,2.636481648734910130e-02,-1.451340230952412325e-02,-1.612166417243938304e-02,-3.007292125544824488e-02,-6.117760753216701375e-02,-6.063544127984594329e-02,-9.853025529454914437e-04,-2.519868324010041474e-02,-1.399034939217386198e-02,-2.204503365558114006e-02,3.492083414276074549e-02,-9.763128109162964863e-02,-1.821142069247983497e-01,-2.250737997773222254e-01,-2.413785238665952793e-01,-9.999833282399142598e-02,-5.570819977718368538e-02,6.866409314800243913e-02,1.294612835084266445e-01,8.051478879577918246e-02,9.692514433710023788e-03,-5.041492848323754494e-02,-2.626757024016069739e-02,2.516384719454570554e-02,4.399737070374899056e-02,5.017906560309375041e-02,3.160974917512732185e-02,8.341165264897107065e-03,4.759554840201910691e-03,7.745651380485525130e-03,6.082311290703866502e-02,4.080881607053208487e-02,1.781386276038693026e-02,-4.586275101467886250e-02,-4.421066184446982572e-02,-1.646453715887201963e-01,-2.088685123408356714e-01,-6.401097188907244051e-02,-1.771576043274940282e-01,-3.407462139098013099e-01,-3.864928126848483636e-01,-3.860306924506699544e-01,-3.315481973090633749e-01,-1.236020091984517816e-01,-7.471562541942433633e-02,-6.104438292870901367e-02,2.318696499170817132e-02,7.316683647561614268e-02,-9.888721864940158701e-02,-7.438172238631780842e-02,-1.469094566663539658e-02,-1.092836657862788011e-02,1.202193828842624407e-02,2.894228291845662993e-02,-4.140287826848158825e-02,-3.681738925711292021e-02,4.572773522629624415e-02,-3.829213047707413775e-02,-5.051301305120953211e-02,-6.731509557913615584e-03,4.975165369404219856e-02,-1.175565159740711574e-01,-8.127660341633377583e-02,-1.877682682586128138e-01,-1.813385065947505370e-01,4.893736133549746181e-02,-1.964209457751445453e-01,-3.115570549096531305e-01,-3.520829336089884576e-01,-2.816106696027635414e-01,-1.410919159429980252e-01,-4.556953150198961994e-02,-9.735341224877668009e-02,6.118750069922667539e-02,1.055508542524298196e-02,-5.610725782098083952e-02,-6.082249893329147450e-02,2.508897350245743035e-02,1.203699609622195174e-02,1.723288147552700170e-02,2.391654930429316234e-02,2.897999123686456624e-02,-7.363940883612946076e-02,-3.049457819313629650e-02,-8.122918779161118763e-02,-3.179266907680900617e-02,-5.560340873503375608e-02,6.768709932604365619e-03,-5.608677780283436581e-02,-7.187797007594159959e-02,-1.505328918573373975e-01,3.515170091187922591e-02,8.909524703948373163e-04,-1.348523128182550490e-01,-2.826616240154001813e-01,-1.329528934156922193e-01,-2.765116514626219657e-01,-2.963783530480936790e-01,-3.827497242318265713e-01,-1.317178328756980210e-01,-3.126490354509670055e-02,1.384442001553727597e-01,1.674715925999142596e-01,7.981783446165373330e-02,-7.485529471291882397e-02,4.406096517325768652e-02,8.644144010126340177e-03,-3.190961893951860945e-02,-4.586212060673786756e-02,-3.348191666670365108e-02,-5.407783748528308121e-02,-2.650743088453660912e-02,-5.369621340979370550e-02,-5.198712718711010622e-02,-9.469597612909853857e-02,-3.326126057261977187e-02,-8.540787845769766407e-02,7.646593338466216305e-02,-2.689861043945049410e-03,-3.897100505139557830e-02,-1.186936110823330615e-01,-2.500703432558191719e-01,-3.012232358546683142e-01,-2.414825943595426128e-01,-1.246406803428427579e-01,-1.976605838852883157e-01,-2.126077668816436506e-01,-1.630287185038052644e-01,-9.572071702133498616e-02,-7.316462453841990343e-02,1.694115133069144519e-01,2.008320544963384247e-01,7.095758163579506117e-02,-2.210733988874947001e-02,1.287611302325361411e-02,1.377809077349001141e-02,4.444900133119183278e-02,-2.660006186037382897e-02,-5.672178150034386940e-02,-4.954340100982568967e-02,-4.908693725440536199e-02,-8.751123809206207138e-02,-1.124863509550041302e-01,-1.248632967958361595e-01,-1.722055315941129622e-02,4.944422386455463517e-03,-1.673069989597919963e-05,2.141968661430393699e-03,-3.939116301595417535e-02,3.060389709518753984e-02,3.574657183280580824e-02,2.085556763313982098e-01,2.813359094428843910e-01,1.789172570803115592e-01,-5.206015651166675390e-02,-5.180046312830766803e-02,1.130135992478566338e-02,1.435482636808207146e-01,2.682097464035422818e-01,4.432181973061575242e-01,1.610186580474879670e-01,-1.103431690966890678e-02,2.205736783868834927e-02,2.018512407572436301e-02,-2.529736433049723301e-02,-4.915962663028974194e-02,3.576679287317544899e-03,-6.634642226788327324e-02,-8.938622888605168848e-02,-3.847885129486992850e-02,-1.680253739941382773e-01,-1.672780189101792658e-02,3.175669821999331510e-02,-7.007060685155624968e-02,-1.367523001260988191e-01,-3.028253179306176004e-02,1.798266568253465425e-01,5.281932390935761834e-02,2.402676574245606045e-01,1.446012024625620562e-01,1.945222867162337277e-01,4.511404157110449065e-01,6.129308142926267466e-01,6.154997273999575080e-01,4.335827621819089983e-01,3.471862004586131478e-01,5.301986567970530251e-01,5.306594334264563839e-01,4.283614078350236887e-01,3.172310511351448398e-03,-9.895814190330179394e-02,-3.100652415433751211e-02,2.133272257517542653e-02,6.492007129357280082e-02,-3.127819927213370751e-03,-6.829006961412385779e-02,-1.126166883400088609e-01,-9.732689518294951325e-02,-9.402376623336211603e-02,8.850383030947418794e-02,8.030419548814714259e-02,-1.378499657157208069e-01,-6.942058808398778036e-02,9.235018423121500730e-02,1.429181328189592370e-02,-9.641447466877146877e-02,4.986141026058289044e-02,4.410458306473422074e-02,-1.165789575889854095e-02,1.330586506651897927e-01,2.514637915636537269e-01,4.845481892036218596e-01,4.808982811938555257e-01,2.886491031706108212e-01,2.245716677362050995e-01,2.746228704859383640e-01,2.801431382584274599e-01,1.284839795732207191e-01,4.230577757889540658e-02,-1.675472983774118491e-02,-3.036067803135606910e-02,2.558137670065957839e-03,-8.980278193877201665e-02,-5.698053078597468263e-02,-9.734752741105842655e-02,-1.551527962563132301e-01,-1.672170042970654372e-02,-1.141535791936170718e-01,1.179624947718300870e-01,1.106780612540708281e-01,2.848321585484302892e-02,-6.294713048082527240e-02,-1.140935052864390509e-01,-4.575859672783516574e-01,-4.175765576101987397e-01,-5.322003193762427919e-01,-5.439469235981139184e-01,-6.386175141712148173e-01,-5.821255190096267240e-01,-3.312667272885351233e-01,-2.676081966361543718e-01,-1.872205190476035619e-01,-2.136696272990527001e-01,-1.440636375766690680e-01,1.375094186512448025e-01,-5.949006853605017138e-03,2.966817052983548517e-02,-6.012495560631548469e-02,-7.013081361648969281e-02,1.248424624964133457e-02,5.451701760644613037e-03,-7.147991887278745682e-02,-1.633538572332196015e-01,-2.668852894963630318e-01,-8.110510205598550626e-02,-2.645614223881057915e-03,1.228475816889625094e-01,2.234702526437434000e-01,1.066570563936491134e-01,-6.567328367573181669e-02,-4.671322842333412440e-01,-6.173707860734624076e-01,-6.349701118388492160e-01,-7.247199775476085293e-01,-8.833772613804039553e-01,-8.340433615233855402e-01,-7.223509908549258229e-01,-4.394458473819619626e-01,-4.436995480443146067e-01,-4.455943069642742116e-01,-4.333360875042023275e-01,-2.207056646726178462e-01,-5.463205390466117917e-02,-1.094246543088279750e-03,-2.291907453475021048e-02,5.848198657259049901e-03,-7.368780090561191654e-02,4.473085014873607462e-03,-5.802922624329325679e-02,-8.487757936443036944e-02,-1.310533564738110557e-01,-3.401066217399124070e-01,-1.621112599626971518e-01,1.114571665583823784e-01,2.099157999006799613e-01,2.443078655988406567e-01,7.695779628149460039e-02,-2.512342479441366794e-01,-3.983821972605702255e-01,-4.584884547783573128e-01,-4.194591676008536663e-01,-4.710961307608577675e-01,-7.709208780449400278e-01,-6.960681714741432380e-01,-6.140379179326839187e-01,-4.553801830808358320e-01,-4.898219294593170736e-01,-4.032166005871504755e-01,-4.524461113460615524e-01,-1.989788920345936241e-01,-1.114292108521153096e-01,8.935313877667265320e-04,-5.701091397026249175e-02,-5.885326046370598085e-02,5.421754119995000204e-02,-2.999661211261244256e-02,1.475980815539268930e-02,-3.830555438004990682e-02,-1.834722290520370558e-01,-1.748356814892332578e-01,-1.520946351419895370e-01,1.388563483966248069e-01,3.481180141922308180e-01,2.885024866591752724e-01,3.343340574307633317e-01,2.823880185410533317e-01,-2.704227499288251457e-01,-2.807197821975986884e-01,-2.464045989793611502e-01,-3.850494238348602938e-01,-5.264737161408320487e-01,-5.452880369111372527e-01,-4.827664601987881610e-01,-4.498744810545227124e-01,-3.726962892680079076e-01,-3.388229057938913491e-01,-2.318970831084590511e-01,-1.895965657410214888e-01,-6.098818620250699533e-03,-2.120304434500100074e-02,-2.336982348878208215e-02,8.907828677086923608e-02,5.280605777700027315e-02,2.570447958602344388e-02,1.224972341348783481e-02,1.312864208063701035e-02,-7.883462705394914116e-02,-1.753000163877583284e-01,-2.507438416635660028e-01,3.076306625422401894e-02,2.913697554350423435e-01,2.596661641645764962e-01,2.413250730017538481e-01,1.982477776066753905e-01,-3.188739418028829070e-02,-6.939704975435237455e-02,-1.686550433841527488e-02,-1.546402097106155671e-01,-2.683259942623647532e-01,-3.309500036265055067e-01,-4.257361913171940904e-01,-4.307554030601475348e-01,-4.655893754931408890e-01,-2.323001336933741001e-01,-1.288439386670514331e-01,-1.279210520360256342e-01,-5.601122851376869050e-02,3.543162338033496034e-02,-4.436351345288449405e-02,4.287674221088986354e-02,-1.592632516654143154e-02,-1.312052480230865847e-02,-2.396853951959832039e-04,4.137713433075469044e-02,-9.340834467556005660e-02,-1.519158137222804128e-01,-2.876624413835222049e-01,7.043945044477631368e-02,1.313225630676593536e-01,1.712965184379190986e-01,1.293807320724126297e-01,1.090912079954105690e-01,2.454039768216400089e-02,-2.120077403297064844e-01,3.621309926776140886e-02,2.835068772258124772e-02,-9.318944421720082305e-02,-2.886984065815561551e-01,-3.634878133848609139e-01,-4.291557249275225194e-01,-2.842034074881153449e-01,-1.731363919581668798e-01,-3.320627979635381449e-02,-9.843137452629539819e-02,-7.203370915221377069e-02,1.156641083645613272e-02,-1.778198253095034098e-02,-5.815150627462167821e-02,6.553590083710779390e-02,-2.840717891493165295e-02,1.945672837483077011e-02,1.909472449904780697e-02,-1.347358250691350068e-01,-7.804579445960840856e-02,-1.240815451700372496e-01,3.650501699059894439e-02,-7.393679047160442441e-02,-1.245852661515592791e-01,3.517918916659014683e-01,4.024552263119628992e-01,4.011980410609320563e-02,-1.664836737517273735e-01,-2.705458452575295047e-01,-1.589311758841670807e-01,-7.824101383237821658e-03,-2.344961813068231760e-01,-3.479784763012828686e-01,-3.009267743760655756e-01,-1.524922195202403630e-01,-2.355337561316361503e-02,-1.150070650190386234e-01,-8.352018297048070805e-02,-2.229204690226250368e-02,9.966622241374883256e-03,1.046649902974472728e-03,-3.264443746239785449e-02,-1.455081414578212468e-02,4.459669326253987674e-03,5.397226252818400349e-02,-4.596218968740781174e-02,-3.126376238180991751e-02,-2.136868745778723946e-02,1.845242437048668638e-01,-1.663304558790860421e-01,-2.100725520202804952e-01,-2.664342183696157274e-01,-2.215412439362298980e-01,-1.628251727460704526e-02,-9.084807078035740668e-02,-3.160118156698558667e-01,-8.369559676631513345e-02,9.638191578059955578e-02,6.573985581227163866e-02,3.422466670717971837e-02,-2.275011073508055315e-01,-3.019521580054001508e-01,-2.259850495668551396e-01,-2.471704357202625726e-02,3.277907926653505361e-02,-7.231251323781294482e-02,-7.488778048989172542e-02,-2.594579754151910694e-02,1.055765895121183270e-04,-6.439266713470875175e-03,1.999265433817540120e-03,-1.483360411346919261e-02,5.836715516070049847e-02,8.654493468960819044e-03,-3.108393045339789482e-02,-1.112835107985312016e-01,5.192503522190890231e-02,-1.408954215638904273e-01,1.625880876859027782e-02,-1.514872328008787239e-01,-1.488982051969241771e-01,-2.182614448447698918e-01,-1.125448008507052566e-01,-3.177218206861832095e-01,-2.040813200187884327e-02,1.708210449205626869e-01,2.127953210516250193e-01,1.777457086622803023e-02,-1.811274686030643899e-01,-1.000070908112379031e-01,-5.937236760874899100e-02,8.537552741166422321e-02,9.967077059330509137e-02,-1.933207252005305146e-02,2.547165430207591012e-03,4.629522066172471473e-02,3.626265560468563964e-02,-4.621415715687821751e-03,3.220518548254123342e-02,-1.545206009904787764e-02,1.215325810857234047e-02,-2.200533914798535190e-02,-1.051713857926877965e-01,-1.762639774504762558e-01,-2.348722041960397688e-01,-1.195809522636829408e-01,1.085598830624128069e-01,4.887798968758566565e-02,5.092555208151915841e-02,3.521494308155583008e-02,8.723960917993879571e-02,-4.852392556853264011e-02,9.942217958234299269e-02,-4.200948387020912028e-02,2.761137009858939395e-01,1.001807012569767841e-01,-3.588959085721897535e-02,5.637976119557411292e-02,5.511213779488560033e-02,1.011274916157916537e-01,1.222771498568067834e-02,1.072113611204410233e-02,-2.016593806913516591e-03,-1.585208922085321048e-02,-8.936391241897122251e-02,-6.793811275727592094e-03,-5.162401360612416806e-02,-5.872849692935829674e-02,-6.616981606023733010e-03,3.758899015685415734e-02,-1.379895527011770484e-01,-1.317758001992593853e-01,-2.676800704115003260e-01,-3.052780338850800690e-01,-8.358169034573785516e-02,-3.514857767768411051e-02,1.777881017173704725e-01,3.570281750009747235e-01,1.481632124626127145e-01,-4.873425754680067723e-02,-1.956636651346735367e-02,9.366989000171294100e-02,2.470676619486004977e-01,1.660046542404809977e-01,7.538999736554180542e-02,8.046415202568849012e-02,1.395260361832652007e-01,1.454771568912517632e-02,-4.888991761698920600e-03,-1.488289089507405238e-02,2.985983570976001068e-03,-3.157569268617213543e-02,-2.823900658024199387e-02,1.801612612890108808e-02,-5.166584768990615389e-02,2.997147795943081328e-03,4.196504798448690704e-02,-2.390123263532686632e-03,-8.468608947522374142e-02,-6.962846562086093261e-02,-2.366714315278171943e-01,-2.284470061890764292e-01,-1.817168239233955540e-01,-2.409911550219482890e-01,-1.732359313545567547e-01,3.894148186597738703e-02,9.781602058851002202e-02,6.798642243179074673e-02,1.032273589894242422e-01,7.814757084247780927e-02,-1.468913167255325551e-02,9.337628948079398916e-02,4.233166403344301720e-02,8.616241745440429700e-02,-7.370584095452221117e-03,-3.287091594930884042e-02,-1.571541662646566001e-02,-5.375776492697410119e-02,6.547606538283066990e-02,2.444340384222343926e-02,-2.398949436399497662e-02,-1.845086498885076601e-02,-5.057544357246606531e-02,-4.447097853636167164e-02,-1.267645819464546623e-02,-2.342546726709486896e-02,2.139566075166171241e-02,-5.329813827397020948e-02,-1.692693986702313858e-01,-1.517465636673547003e-01,-1.105696523515630886e-01,-1.710671866912263223e-02,-8.503652671049287404e-02,-6.422633470292496427e-02,3.158025486451645353e-02,1.532799809024032733e-01,2.190093278048377973e-02,1.149055397469859602e-01,1.424973391986774363e-01,8.283535628987774568e-02,8.636067175330845724e-02,3.156496059826698758e-02,-2.185628833252188305e-02,-2.154703004033199643e-02,2.858217655695332801e-02,4.384594860998011073e-02,5.586509487031269400e-03,-7.976741156486027995e-02,-2.081373410931893278e-02,1.689549189998841225e-02,-3.841797619457900520e-02,5.871417192072524854e-03,-2.462995932618304226e-02,3.869216742278716765e-03,-7.308391730766027571e-03,-4.257181383272368169e-02,-1.399328090763995447e-01,-1.552727248961367212e-01,-1.546260428126998709e-01,-3.429643190295617039e-02,-2.724374948979611105e-02,6.223838235278123659e-02,3.940622493741195720e-02,-8.561459991202978459e-02,-2.457774922702716386e-02,-1.288084708908347926e-02,2.605316441748338832e-02,7.049556077448691782e-02,-2.852905973803261663e-02,-4.130762461537368369e-02,-4.758944837374486092e-02,3.081284802634303918e-02,-1.022407979397039167e-02,-3.609539073809613086e-02,6.053137215347735578e-02,-7.878641202246820449e-03,-3.088021932473765038e-02,-3.693727826904268791e-02,-3.272984117224653211e-02,2.179076534292634024e-02,-4.577426289874596960e-02,2.313171162033235070e-03,-2.243370293694272113e-02,-2.186463746032359795e-02,-1.045022520816019929e-01,-7.925640295524098711e-02,-1.081363240014101140e-01,-1.848525756246228655e-02,2.134310999990740240e-02,1.081828692502600914e-01,-2.479820472748088533e-02,-9.920931529786992942e-02,-1.085138878863610296e-01,-7.185000865150728555e-02,-3.145949149696088132e-02,3.346263865420210509e-02,3.188563449135666753e-03,-1.754358223833383038e-02,-2.827942337746170917e-02,5.823364717620663905e-02,-6.153060308694303926e-02,6.994055160269396776e-02,-6.958006712829713225e-02,-7.030630182746555601e-02,-5.835338265747069125e-02,-4.172504692650361863e-02,1.490204746971834915e-02,1.653372050637682070e-02,3.084123007658781321e-02,-5.221348864900030029e-02,2.505427618611383994e-02,1.866410449551131985e-03,-2.411206777061782047e-02,-4.750157402163904252e-02,-7.757096024856899308e-02,4.109882980240647105e-02,1.984954589597911351e-02,-2.262467970955296410e-03,-7.079494177499015550e-02,-8.814049306510290949e-02,-2.705484010215682134e-02,-1.126339913489726591e-01,-7.621894308422051678e-02,-1.897562573133123112e-02,-6.099715339705941153e-02,1.632962052777471237e-02,-7.161965082676721717e-02,-1.520050237657248095e-02,-2.570380223125723687e-02,-1.175462500729795856e-02,-3.067987692986101286e-02,-5.922729867255886738e-03,-5.803934637769313926e-02
-4.658710170239201837e-02,-4.309459846950399603e-02,-1.975086602316847642e-02,-3.887400830195816143e-02,1.758767378932370520e-02,-2.274992525157016818e-02,-2.337797435457974679e-02,2.854255145429488577e-02,-8.692520611594996283e-02,-6.034839264199192560e-02,-2.149259659103120931e-02,-1.454085606376403009e-02,-3.054064616581743732e-02,-5.568230681981520963e-02,-4.676664148274685406e-02,-4.237997213698255911e-02,4.747501019697231844e-02,-2.218706518313018003e-02,-1.089253862558928337e-01,-6.942027591763551275e-02,-2.604390123997245635e-02,4.742130230466368862e-02,-6.336420343042464820e-02,-1.216459356009693196e-02,-3.673359301689963635e-02,-2.619707096585817754e-02,3.264733193604390377e-02,-3.348839928148553136e-02,3.991049579590150165e-03,-3.439195404007873436e-02,-6.384584160474049419e-02,-2.260183007230473842e-02,-5.223276900854857685e-02,1.504584628534678080e-02,-2.611401897291997648e-02,8.730882031319936801e-03,2.382171342589659360e-02,5.251523025787745332e-03,2.336243620600947715e-02,-1.120813725278324985e-01,-1.086805497589100333e-01,-7.056931182507850120e-02,-7.109192797110851225e-02,-1.144906248478349264e-01,-1.097209239869524344e-01,-3.164139521427210278e-02,-1.160462490283741266e-01,-7.493514714631738238e-02,-7.517160750696473548e-02,-8.387226369868805431e-02,-1.268664412410973608e-01,2.660941651888123691e-02,-5.826506252913329215e-02,-2.945063845365230790e-02,-8.943208728513900307e-02,-2.835703294437481523e-02,-2.735138343609696057e-02,3.108184794084304335e-03,-4.489035098985250105e-02,-6.356434867004109868e-02,6.736435201440725898e-03,-1.336395589943224424e-02,-2.535586248729205724e-02,-1.610474353599804787e-01,-1.112484091275636466e-01,-1.121536510536226272e-01,-2.084207552022459831e-01,-2.117598535360670775e-01,-1.797784286715111424e-01,-1.622560898664205664e-01,-1.683115808733874619e-01,-2.189958862289172470e-01,-2.794780460838705016e-01,-2.420178552392240889e-01,-2.045254048058939844e-01,-1.712159524944020239e-01,-1.304073406704183702e-01,-1.696941136859472787e-01,-1.354651941758928668e-01,-6.835087590379489153e-02,-3.119161526681831637e-02,-5.802537432627166702e-03,-3.213720269725042766e-02,-3.620337110661702579e-02,-1.078726077012665333e-02,-4.796076216412916565e-02,-3.836479275674989364e-02,-8.014306805486369478e-02,-7.554859053361262164e-03,-7.296372590344361864e-02,-8.084752785087789828e-02,-1.592740022460339411e-01,-2.995743234607404215e-01,-3.370492081492824088e-01,-5.369667025104809532e-01,-5.019309448399552620e-01,-4.543055033693486622e-01,-6.797564384565966122e-01,-5.818925851535521332e-01,-3.599959270145723922e-01,-2.626299072770016951e-01,-1.898796714059267920e-01,-1.603414281483906689e-01,-2.017557242025119213e-01,-1.517014174117970737e-01,-1.154786020770886268e-01,-6.442823710933300377e-03,-1.660062198564048186e-01,-2.560177240965405901e-02,6.607599554030894884e-02,-4.727614472656029021e-02,-2.328514846740146679e-02,4.920335480470938022e-02,1.380515887931078531e-02,-3.603073911662833806e-02,-9.714061889834814736e-03,3.668455091798820955e-02,-3.648386864291111586e-02,-1.075829357991373164e-01,-1.709602827429185790e-01,-2.455840994516439169e-01,-3.872331787618290555e-01,-4.484482931199675892e-01,-2.233710622749862373e-01,-2.299468287266471511e-01,-2.764631431400946804e-01,-4.673706352763556393e-01,-9.142271482205145683e-02,-6.880431251170295026e-02,-4.911096136765921022e-02,-1.455645095971341008e-01,-3.662239430919631000e-01,-1.938044369373939091e-01,-8.122516645140724634e-02,-7.477679764057268419e-02,-1.025213503034575618e-01,1.277332679025817985e-02,-8.370578415857275745e-02,3.793771275140805227e-02,-1.259328983940390945e-01,-2.215120928828126848e-02,-2.630574854477104804e-02,1.598615556651973926e-02,5.482295810218884916e-03,-1.208378905766293171e-01,4.918438583034067876e-03,-8.544351109710003611e-02,-1.113299276411939126e-01,-1.418557218918884699e-01,-1.128650451797637427e-01,-2.555757579058861584e-01,-2.142978910702325601e-02,1.083363492241619652e-01,-1.619460118729859968e-02,-3.650156002852981696e-01,-1.864095319928003314e-01,-2.936384583636532652e-01,-4.346539340387321482e-01,-4.875571237689727555e-01,-4.728591582711971220e-01,-2.307005463678082902e-01,-2.326179355430543771e-02,-1.462346425208135327e-02,-1.146359857484165468e-01,7.659920757027786561e-03,-9.503518460673900103e-02,2.455721742463200935e-02,-3.996774533335430146e-02,-2.555126444241501496e-02,2.861899497045222035e-02,-2.789142198765284450e-02,5.733590937889823658e-02,1.116825609856811480e-01,6.259187929645503023e-02,2.755008489116530374e-02,1.675946915785524530e-02,2.585280816965309508e-02,-2.548232511497520308e-02,-3.995629160939364460e-02,-1.207061087814595146e-01,4.963420953677814829e-02,-2.204168414781663421e-01,-5.886135194860174780e-01,-7.756891153055687216e-01,-9.460911980151487377e-01,-6.426354650566062920e-01,-5.452925743210598197e-01,-3.048213136884475039e-01,-3.353251647442548888e-01,2.295212307030613380e-02,1.348850899033482154e-01,1.289971033890774388e-01,-1.753602425954016789e-02,-8.131654700977497541e-02,1.265635857762454838e-02,-6.482339318862721800e-02,5.720057835531209937e-03,-1.769680132648426482e-02,1.121106552329314936e-02,9.164068279804082895e-02,2.827861517527089849e-02,6.008643025684116956e-02,1.349813317740193863e-01,4.618980596903217439e-02,-1.278929003858437774e-01,1.053070952602437049e-01,-4.427997010645444431e-02,-1.759329393948781683e-01,-7.866449327744327868e-02,-2.251364501781194793e-01,-7.135355430335519333e-01,-8.943412422150834873e-01,-7.308174965169811355e-01,-3.132546630906385410e-01,-3.280422377797326816e-01,-2.342101309950734289e-01,-2.418981588957172524e-01,-2.800362169763002951e-02,2.903059205777687168e-01,3.959755482297762086e-01,4.628638905362249256e-02,-9.158783533926911913e-02,-1.341252462408116706e-04,5.908243758803541357e-02,-3.917752495927927930e-02,-9.985566376794516308e-02,-4.370158681805925982e-02,4.496149227467097741e-03,3.059350768566558923e-02,-2.742458429698130945e-02,-8.728900575007690274e-03,-2.363341794907936055e-02,-6.192485863135183122e-02,-9.642305907168634282e-02,-2.976596686695656135e-01,-1.163742610093838198e-01,-9.896267383133307283e-02,-3.095448444140612709e-01,-1.965433290854115278e-01,1.017502814090085611e-01,4.346097283261195210e-02,-1.460627869247873301e-01,-2.947208138084065829e-02,-4.261073875564648783e-01,-2.719565923026077692e-01,-1.362326016235842208e-01,2.109598886409519425e-01,1.574784232781715199e-01,-2.286607648125845577e-02,-7.132850971788842580e-03,-3.637676423737676301e-02,-3.521480050672201254e-03,1.099564578209633525e-03,3.424060979598207710e-04,3.351043164445965949e-02,1.209724349049100395e-01,8.275125802544697207e-02,-1.128332448541747718e-01,3.496880720972771195e-02,-1.613880989950357003e-01,-1.764369476098433809e-01,-1.645709651097911896e-01,-2.278178490563803893e-01,-7.768632941917336110e-02,2.142676141635845299e-01,3.117141927517323996e-01,1.581855264168429698e-01,4.309441903880171787e-01,3.970560302708081579e-01,2.531680354899649710e-01,1.588103457271512475e-01,-1.270340366428455159e-01,-2.519249528241290226e-01,-3.429764228995795805e-01,-4.809526908737028761e-02,1.330067232433313207e-01,-1.263566541429218121e-02,-1.316822235421465370e-01,-2.398736923088398351e-02,1.219119116267857600e-03,-2.027202575530731576e-02,2.853694354917420128e-02,8.602941925192904293e-02,8.695275221607857985e-02,-2.417957207658601778e-03,-2.205267848444995293e-01,-1.248837209724632247e-01,-1.035087097863006955e-01,-2.487144902640305300e-01,-1.621553986642025880e-01,-1.402202538015706046e-01,-1.702865178967159082e-02,4.107151524998589598e-02,1.761361375359686565e-01,1.214857420232975521e-01,6.149341408857391666e-01,4.045374047464153633e-01,7.164000837671241628e-02,-2.461538742717893358e-02,-1.708136174385622708e-01,-2.254370791119048034e-01,-3.126873590594835828e-01,-1.157323333975932428e-01,-1.491756500049427718e-02,3.226589443926956152e-02,2.902321724101915648e-02,5.733349313841346051e-02,4.345200033335890055e-02,3.114986546710141885e-02,1.180192315341095817e-02,-5.255723958552072084e-02,1.957564680707429144e-02,-4.499753058603468692e-02,-2.486372958434856784e-01,-1.885361575130613809e-01,-1.529509811270400033e-01,-8.540598919066361150e-02,4.220825918660998932e-03,-1.205699962783193802e-01,4.704811946358804231e-02,-2.410171360645186819e-02,-1.222527065498356380e-01,-1.354359754727356702e-01,5.531008973428892528e-01,2.735217392660307945e-02,-1.664267320358346902e-01,-3.601240584786727927e-01,-2.224212614727603676e-01,-3.255320278805919343e-01,-3.370607823409526027e-01,-2.680991979316210139e-01,-4.167165892072088318e-01,-1.931352131806285954e-01,-1.152872851414639133e-01,1.050953274783965330e-02,-3.958534948637076195e-02,-8.857533924216431584e-03,7.846358062208341755e-02,1.423242950131568298e-02,5.349521810088065515e-02,-7.474748435083275466e-02,-2.243239472379912613e-01,-3.076646682126203958e-01,-2.746356253543855153e-01,9.798777229518733367e-02,-1.326204091384735884e-01,-1.707774262048891156e-01,-2.501614319113509288e-01,2.567975764459479171e-02,-3.976081882375497867e-01,-4.827084028122704540e-01,5.151255368390020989e-02,-2.759031422576858072e-01,-3.183032849977163736e-01,-2.640822262701896794e-01,-2.756422063199434058e-01,-3.154346611119483446e-01,-1.917734444094015833e-01,-2.018210437828132919e-01,-3.366268858786578555e-01,-3.510269824659267290e-01,-4.126250255722515442e-02,9.248423412680170652e-02,-4.266638554833956931e-02,-2.758924553167179869e-02,-3.539569638083400142e-03,1.308106137136675826e-02,6.268545734870058228e-02,1.986911644182290382e-02,-1.147948343028866031e-01,-1.195850975803488536e-01,-2.124573461625492987e-01,-8.337205644213642464e-02,-2.241516194957256791e-01,-2.372520029620949489e-01,-2.097773604546909199e-01,-1.920027876399530709e-01,-7.158705835554511898e-01,-6.376101995172622772e-01,-3.452949663700388694e-01,-3.187858051774206114e-01,-1.353787197495997241e-01,-3.734912715313791765e-01,-4.014278967357148842e-01,-1.162705492133528778e-01,-2.243817611639706278e-01,-8.759087603956179635e-02,-3.925663135731224940e-01,-2.993157245760605378e-01,-1.579737650092601781e-02,-2.649100150533014245e-02,-3.749141870455863744e-03,-3.304816339373072009e-02,3.721215739689667790e-02,-6.142527027440727871e-02,3.578342558602368335e-03,-5.826646527744777128e-03,-4.372180555657088734e-03,-2.192441352172032898e-01,9.521947822193242705e-02,-2.955422302683013286e-03,-2.310389893419326768e-01,-2.569758469809877988e-01,-9.056126425236409039e-02,-1.768830095875684877e-02,-6.734724488333158066e-01,-7.544024154571805640e-01,-4.952147331340080449e-01,-4.009243431622357967e-01,2.962167140339504456e-01,5.343652992328214169e-02,1.396500436848042148e-01,-7.727819538157537638e-02,-2.911964829740257277e-01,-3.228896455437454405e-01,-2.834952610564053788e-01,-1.403176525672130415e-01,-9.065833871733873506e-02,8.223666478007089775e-03,-3.882361869417671335e-02,-4.391437836309937393e-02,-2.981325500685507932e-02,-5.137970361973958136e-03,-6.689940182093404020e-02,-3.901576674085066587e-02,-7.921629221086831651e-02,-1.378165092521519142e-01,2.101181473342141406e-02,7.774528961742561972e-02,1.012119123357093503e-01,2.041259666230790110e-02,2.861469159117024375e-01,-1.349002475015501253e-02,-7.137506294418791697e-01,-5.917981808196774995e-01,-2.963935237315951654e-01,-4.706590485236544774e-01,1.128830259080544768e-01,1.309843145365440775e-01,-3.080245177053779759e-01,-2.285573831309901383e-01,-7.216027473559426253e-02,-1.179199052739820924e-01,-8.447620748913300948e-02,1.017610818542574389e-02,-1.063629889424765884e-01,-4.904537960799162065e-03,-3.362198481916594400e-02,-4.816042164520505098e-02,1.245814930079562448e-03,-3.730390220085657432e-02,-1.216541904966999266e-01,-1.115707753292946997e-01,-2.368708817933014854e-01,-1.176883173481254874e-01,-5.746266039791459584e-02,3.181861235445018199e-01,-8.267194150304411904e-02,-3.227602075269554449e-01,-1.310035001326716186e-01,1.226657416720698945e-01,-3.616259932982304748e-01,-4.777035543962074304e-01,-4.628732585857945475e-02,-2.959094896951157683e-01,8.460004267952932200e-02,-4.773087702439881945e-03,-1.324772653294038760e-01,1.778796566572997118e-01,7.351253726837081448e-02,-9.327338244486547969e-02,-2.052746218576151707e-02,-8.016156575144865737e-02,-1.860759883426009731e-01,-1.103090801157167455e-01,-3.544947178284323097e-02,-3.852907665747169058e-02,-1.131230469971123385e-02,-6.270329884924133457e-02,-1.266303493463082075e-01,-1.796266374036236957e-01,-1.323486286824143709e-01,-2.280507775886971011e-02,1.190193383149662359e-01,1.252080670003060114e-01,3.928835153909218669e-02,-1.942206008969577513e-01,-1.149484059032973293e-01,3.986892899537533563e-02,3.533337320665824038e-02,8.580948073326448433e-02,1.522748955568744844e-01,1.159708648263492597e-01,8.666257831327479899e-02,2.193442837012620286e-02,-8.414865088266566817e-02,5.271698012930723515e-02,-2.516492403631131677e-02,-9.230048865084161669e-02,-4.509808487771876234e-02,-1.587662121787936365e-01,-1.429653642400538494e-01,2.668911474780023135e-02,1.925257318801215558e-03,-1.243181431578284368e-01,-9.160795490692819065e-03,9.507047886371258749e-03,-1.315442547242267057e-01,-2.402615918061181965e-01,-9.474999532102124089e-02,-1.798321399825824896e-01,-1.357153164557286518e-01,6.657015212126442261e-02,-2.901434338641937019e-02,-1.898086879352528789e-01,-9.973783635163444017e-02,-1.611829009203069318e-01,2.185637460469912891e-03,4.736038314674297783e-02,2.177870402833239488e-02,3.542939389720115018e-02,-8.350146332091040735e-02,-2.498563700962843637e-01,-1.435620644131879176e-01,-4.280185960255855626e-02,-2.229831088581748777e-01,-2.452137404098967133e-01,-2.974217959685720447e-01,-2.868993603082483634e-01,-1.327937014612121658e-01,1.872041293551231222e-02,-6.011262458186420951e-03,-7.979646906584453303e-02,-2.693416583541452178e-02,-2.423861368935349356e-02,-5.997005196598189508e-02,-1.586030739865726957e-01,-1.202044409246054713e-01,-3.880675067212460694e-01,-5.566369097100797303e-01,-2.470307048226484670e-01,-4.156885289964865615e-01,-7.512546585330869275e-01,-5.512175358341728781e-01,-4.423365497135440250e-01,-3.020829110928991978e-01,-1.010860567160878770e-01,-3.205795313204967689e-01,-4.572204200545924579e-01,-4.818630226628762281e-01,-3.275959375081756719e-01,-3.602417105975378453e-01,-2.861871726429442431e-01,-4.694378242878780583e-01,-6.541096035193754155e-01,-4.989499066039700392e-01,-2.703225659928206182e-01,-1.928514298580275010e-01,-9.593003587386050857e-02,-7.298622746825068897e-02,-2.882657999704834814e-02,-1.845006323299855366e-02,-5.179096508090216822e-02,-4.799779738960532893e-02,-2.577326172436201768e-01,-1.950768894912912610e-01,-4.700243455245969315e-01,-6.686953114112776930e-01,-6.582894517681273650e-01,-5.506424542211937334e-01,-7.210139238554008623e-01,-6.149235128006810269e-01,-5.338418951997054851e-01,-4.768609699394682488e-01,-5.289693232745451557e-01,-5.417889798550683533e-01,-4.000109127800297593e-01,-2.340670275795731781e-01,-4.184413266590866209e-01,-2.623718041072847784e-01,-3.488440257433083058e-01,-5.178365774887883077e-01,-4.999698062745880911e-01,-3.419377652609519869e-01,-1.545332796691068489e-01,-6.617119960412846946e-02,-5.533825563055256441e-02,-2.981350810651737029e-02,1.180340310813770438e-04,-1.297836544152013334e-02,-1.411248454312960011e-03,-1.332178438376586949e-01,-1.572212214281198395e-01,-1.776272600775132549e-01,-3.885630958435845050e-01,-6.433695107262307200e-01,-5.486956179341151429e-01,-5.605001553756906452e-01,-6.296162618992117155e-01,-5.053110125878926828e-01,-4.390000984309578858e-01,-6.740779484018220025e-01,-4.821990415798005913e-01,-6.055505311267771473e-01,-1.978068955128292061e-01,-5.689534234906518106e-01,-6.658693819078654874e-01,-1.860031646710454678e-01,-2.559570600960919817e-01,-2.636788234520648366e-01,-3.525600891103712886e-01,-1.781616209105673920e-01,-3.349000419465098660e-02,6.881958802521373660e-03,-2.873684222768543156e-02,1.469418522996969109e-02,-2.841681899773119621e-02,-2.484156492223255769e-02,-3.833536174911649635e-02,-9.494653261478533390e-02,-1.589951315767664242e-01,-1.297700409738611338e-01,-1.115715241885354980e-01,-1.072005228304823421e-01,-2.939007743106981652e-01,-2.236407297606007316e-01,-3.416052504309326221e-03,1.214356216393282367e-01,5.896670579557270614e-02,-2.987238308470251957e-01,-2.421802056989328933e-01,-3.522469534086532517e-01,-1.135233349847810519e-01,-4.242755906241453268e-01,-4.394754835083179434e-01,-3.215139359238032846e-01,-2.687548561332141484e-01,-1.762929291034122103e-01,-1.378724036324591451e-01,-9.939571474625118197e-02,-1.416815392579535114e-02,4.342132659055131239e-02,2.210776575218544038e-02,-4.723187396462376168e-03,-3.080535964290889370e-02,4.180962103723794704e-02,7.471111124062838893e-02,-5.600869767449656589e-02,-3.825148488631412852e-02,4.620479448508974657e-02,3.280022795712445732e-02,2.932839026054771120e-02,-1.839448249490611420e-01,-2.814892573604680925e-01,7.971805306438571603e-02,1.211660700064233487e-01,-8.868252350796734795e-02,-8.523611719359173999e-02,-1.714236738261880055e-01,-3.496679884418149586e-01,-1.454199741840606630e-01,-2.574671051630621488e-01,-4.346591712651476924e-01,-2.190992608826575205e-01,-2.380411304259945071e-01,-2.132064921033964278e-01,-1.329445215734295083e-01,-3.078155088823991345e-02,-4.453219622549809548e-02,7.283132457072612502e-04,7.327257018127485838e-04,-3.800820140964823041e-02,-5.025078532033864370e-02,-9.371169803451308289e-02,-4.054588440875785821e-02,6.259169409365770423e-04,2.082688516875615958e-01,1.721919103968020670e-01,1.753285932413460591e-01,-3.541768662366737153e-02,-2.098491187823903203e-01,-3.937781549351851984e-01,-3.873905698129674890e-01,-1.650077602689793144e-01,-2.075283582673285721e-01,-8.806755028749516101e-02,-2.300752572188160816e-01,-3.959867826647818223e-01,-2.492637039352555983e-01,-2.997719545062751956e-01,-3.869183282273498392e-01,-5.507369103873466926e-02,-1.751461987068363146e-01,-5.188473406013701522e-02,4.701592187367484472e-03,-9.276446740916631517e-02,-4.525342835829885418e-02,-1.929200923411383134e-02,-5.644866215235183615e-02,1.237784605106186748e-03,-1.900084421418030481e-03,3.845462251470208731e-02,-1.274798602987490745e-02,2.080270520083907226e-02,1.028990010694866460e-02,5.909248936762778737e-02,9.694817807506790619e-02,-2.937540272544382838e-02,-1.698392365781015156e-01,-2.190222269994335225e-01,-2.512814068080276853e-01,-2.888765880733196179e-02,-2.745995231171839968e-01,-9.772560848419321877e-02,-1.960859283893444105e-01,-1.513953588447885384e-02,-1.451677679642416341e-01,-2.441613199521339983e-01,-9.578465955579709701e-02,-1.287361007320563522e-01,-5.373842035439652109e-02,-3.298684566130105980e-03,-5.653176773755582557e-02,5.339946372087314014e-03,-6.214318729524670459e-02,-1.205482986611535780e-02,-6.147277617630692026e-02,1.222200529827261600e-02,-1.091240942037375802e-02,4.994331617196638012e-02,-1.826189019716413162e-02,2.231598620868117770e-04,-1.681675427553741553e-02,-6.711817335518035360e-03,-2.466307330499921402e-02,-2.657086633796591421e-02,-8.724117918748448830e-02,-1.201808175842232762e-01,-1.378915999032828341e-02,-3.759515112746676657e-02,-1.138604472154495922e-01,-1.512690070664653857e-02,-6.784948626722209220e-02,3.324083524771208331e-02,-4.584148910982989433e-02,-6.937881437559249853e-02,-5.690424901061821167e-02,-6.677845297067529218e-02,4.066297166575410377e-02,7.488842154271745880e-04,-4.818655546516786153e-02,-1.006406064939157213e-01,-1.724675203254248668e-02,-7.314613359072510979e-02,4.494348504298631072e-03,-4.559320399280671759e-02,-8.712697330027575904e-02,-1.914673745993739420e-02,-7.152042179580382630e-02,-1.957646975860277347e-02,1.647919767521951323e-02,2.088503579094404261e-02,-2.591936799142936787e-02,-2.538091504695585369e-03,-5.813144014743381466e-02,-5.119795701253018055e-02,-5.390557987477180568e-02,-1.593809366392835367e-02,-1.959674297996312833e-02,-9.104872722493710657e-03,-3.112239580171741963e-03,-4.438332830395484013e-02,-1.955607304738875979e-02,3.076077226862073549e-02,-8.845828685266295122e-02,6.381298263621756027e-03,-1.331025361866119971e-02,2.711911920097314320e-03,3.674564572057074235e-02,-1.404910932507109911e-02,-1.840342224476322619e-02,6.469412266562201905e-03,-2.640627117560840828e-02,-9.959899232516597478e-03
1.638308095996859545e-02,-5.152986569724451668e-03,-1.674331861207134856e-02,2.780095537121550844e-02,-1.456526620186301274e-02,-6.625150150395390375e-03,5.093912472340705530e-03,4.839621208765682026e-02,6.318081203405864332e-04,-6.767815074882684023e-02,-3.034783717320100119e-02,-5.033303028465506423e-02,-7.819437025410518050e-02,-8.644097838173968318e-02,-6.483984030551025179e-03,2.119551585985682621e-02,1.245492566800070547e-02,3.140679040756075985e-02,6.146271399513738437e-02,3.045996723301695394e-02,-8.585186175188448676e-02,-1.757752767904182181e-02,-9.073804058828092989e-03,2.103009830391241661e-02,-2.242216794506128250e-02,1.100593681098758353e-02,-1.715436668088539743e-02,-6.272472470851969684e-02,-2.830365955827730470e-02,-6.259736142799968150e-03,1.866097631496798151e-02,-5.070742595020341636e-02,-4.194638329514541186e-02,2.511203016481699732e-02,2.748792495077395995e-02,1.183527696642385190e-04,5.221834212291613653e-02,-4.037367408720445028e-02,-3.797790976285296549e-02,-1.613612123095463716e-02,-2.634269943556781166e-02,-7.589436611755641382e-02,-4.159794709264542228e-02,-9.110373334490705702e-03,-1.973968073621753389e-02,-3.043694311666097010e-02,-3.481685160824071756e-02,6.163488223104150558e-03,-5.570595264534581106e-03,-4.858164135812356732e-02,-2.155855012313271507e-02,-3.076115714442469173e-02,1.774633873504802631e-02,-4.183274634143185899e-02,-4.779191630988650907e-02,-4.532526102548621594e-02,-4.169019099624390878e-02,-6.021506267384121175e-03,-2.391611904464100921e-02,1.670093504154751898e-02,7.269292201682091281e-03,-6.175496504070479564e-02,3.510266901394241273e-02,1.651124070604853902e-02,7.712742616736964485e-02,1.401904415334683240e-01,7.726608030841708441e-02,5.385678799160845825e-02,6.966945825693647565e-02,3.198908222772192667e-02,1.006190526812107688e-01,7.189336893891519475e-02,-5.490010908209291135e-02,5.475283304971118731e-02,3.299318977307545697e-02,-2.623478289657519592e-03,-5.181165313728657018e-02,-8.070945024420850267e-02,-9.787629261834979427e-04,-2.109473383280571074e-02,-2.603755501172836870e-02,-1.707259551050251470e-02,-3.486623440012362463e-02,4.820340010411986592e-03,-2.481206279353915037e-02,-6.631270918015517990e-02,-2.877855491123661874e-02,2.073255534627924460e-02,5.594871343764649257e-02,1.859872993413184267e-02,-3.317317263862543109e-02,1.282979656880497976e-02,1.202094173282804573e-01,1.560685290961885963e-01,1.227106517426707621e-01,1.935315681225757978e-01,1.540929628117545525e-01,1.786183391993242664e-01,2.468528636627624895e-01,9.939908405429914370e-03,-4.112024958290020835e-03,1.881472740674320146e-02,7.996329113156963597e-02,1.031053530442344567e-02,-3.478649074098808663e-02,-2.998844448285030093e-02,-5.164409706133468031e-02,4.534222028859144320e-03,6.481882782587604537e-03,7.531331703725756971e-03,-9.641766761452010004e-02,2.955781905940774515e-02,-3.961693077553456177e-02,-4.256949743905773936e-02,1.178023146829322403e-02,-9.723430142808520138e-02,7.262898177099849639e-02,-4.505705900797216806e-02,7.420384980903792227e-02,-3.619407365344369520e-02,-1.215955318778292075e-03,-2.046584731525122325e-02,1.980773109465581647e-02,-8.837341902631765111e-02,-1.813098839888122593e-01,-3.527556409636273260e-01,-2.913509308484891758e-01,-2.988334596844499091e-01,-3.450992842201296429e-01,-1.751508530606403491e-01,-7.993418837475638195e-02,-8.635838963103278920e-02,-8.611034729402004817e-02,-8.067543915562139234e-02,-2.519780063474526960e-02,-1.403037550535296205e-02,-1.455081838771422054e-01,-1.991264141494158979e-02,-1.443331735913891758e-02,6.440949213618925306e-02,-2.792680618869359047e-02,2.238157620330498768e-02,-9.584205618255882408e-03,-3.798623098984110769e-02,5.616957457534361986e-02,-1.250695733603205961e-01,-5.950369825506994503e-02,-2.131030913788504733e-01,-3.041403755599174086e-01,-2.591710376409320782e-01,-2.018869748464685865e-01,-1.378550843519689983e-01,-4.408189488701530490e-01,-6.018469184189710885e-01,-1.315017437289018654e+00,-1.087203411503019801e+00,-8.616861656652914370e-01,-8.380414194024325969e-01,-6.054449054995304502e-01,-3.245473974031953812e-01,-2.335066640678160055e-01,-2.318401988441828876e-01,-1.772813274173112852e-01,-1.348806869955783971e-01,-7.640521253577549354e-02,2.469467336244533014e-03,3.140622114438426649e-02,4.265142042329531091e-02,6.163224733902857022e-03,4.688037330012457399e-03,3.279248294968850619e-02,2.219135755211466832e-02,-6.680359805644629778e-02,-5.214350516706771632e-01,-1.189973058710646348e-01,-9.148659020321528446e-02,-7.047054138103053811e-02,8.991241935284294273e-02,5.691704587199697407e-01,9.059754120527228061e-01,3.027485009949203443e-01,5.266960077475812962e-01,4.499808080313759118e-01,3.041945090953238062e-01,-2.650637112654183891e-01,-3.331721103337011158e-02,-6.802647285885620176e-01,-1.288904748575840475e+00,-1.245833706975658428e+00,-6.740683549419774767e-01,-3.799913968038648449e-01,-2.713700205396875620e-01,-1.109487621179325728e-01,-1.730476827056721262e-02,-6.468720169844104778e-03,-4.824288196908445292e-02,4.399597630652991517e-03,-4.956951710170433290e-02,1.322855798862480892e-02,-4.640826984641339970e-02,-2.819516117271100852e-01,-7.407237894875703388e-01,-6.052446042167618501e-01,-5.917471888260513735e-01,-2.114594017877046150e-01,-2.395782157119215883e-01,7.711204164510697748e-03,3.573004160399470552e-01,2.798882882084597901e-01,7.871249822983664712e-01,9.985905346157265550e-01,8.945703994021733108e-01,3.897882240101274154e-01,-4.557313402034532390e-01,-4.645668855820243581e-01,-1.054214035942666161e+00,-9.615468111730077760e-01,-6.786021962508325123e-01,-7.173833302270641310e-01,-3.886394441327747362e-01,6.819748721049671836e-03,-4.805468963449988085e-02,-1.133766457325284110e-01,1.618632635905116468e-02,6.352574422497346291e-04,-4.244902692954709289e-02,-5.768192111622078011e-02,-1.359758722675644127e-01,-2.998217106210516181e-01,-8.238259382827020083e-01,-8.105499018299205938e-01,-1.049640412621325236e+00,-3.270648484342332796e-01,-5.917762191071312960e-01,-8.588080695703145806e-02,2.893016923569252663e-01,7.851029748822578869e-01,8.612490754927843994e-01,2.794867091208467214e-01,1.399309198871685200e-01,1.545862764930235889e-01,2.439600906963886318e-01,-1.131975393489824677e-01,-6.121111319336033363e-01,-1.251080489236948035e+00,-8.126425351021506760e-01,-5.792009917455611667e-01,-2.651760439548244697e-01,-8.242739991517734899e-02,-1.448047948107574479e-01,-1.088907394187446642e-01,-1.775662639955443919e-02,-5.123916544975219006e-02,5.906177604639942583e-03,-5.816133199817373478e-02,-1.180884107151557588e-01,-3.113257735261992787e-01,-6.728228018910071828e-01,-7.658895608097711083e-01,-3.263570220701950131e-01,1.297680444334271266e-01,1.644699139820224587e-01,2.009463628058496265e-01,8.336586580982059680e-02,7.319312886783062300e-02,5.610185164735446289e-02,3.607187365104158050e-01,3.923996003854603870e-02,-4.479876632438311440e-02,2.578869967283939357e-01,-7.895018396206723854e-02,-5.849474414519770793e-01,-1.044031394726380180e+00,-8.451536668741392866e-01,-4.667400415953916748e-01,-2.855656163922413171e-01,-1.805825644538574526e-01,-6.918969752431936016e-02,-3.633055100604759557e-02,-5.659684811395111759e-02,-5.123357902165684430e-02,-2.667408495319252646e-03,-1.612250662568763815e-01,-8.592713323542477966e-02,-1.684797949984594145e-01,-2.814803377329682665e-01,-8.394676261524901262e-02,2.415263562776461259e-01,6.659037100825799804e-01,4.484267916866172543e-01,3.914932555097477285e-01,-7.298085649786163753e-02,-1.919650479622992886e-02,3.138878987927453124e-01,-3.204389930430666666e-01,-5.476967244873388596e-01,-1.065192010730980215e-01,2.428471789104871825e-01,-2.953527386901720272e-02,1.220412865973332928e-01,-2.753156140091380655e-01,-5.340776180122698280e-01,-6.484084428686950341e-01,-2.743413628551082950e-01,-1.763767965897893863e-01,-1.250483387520773537e-01,-9.082188512971951788e-02,-7.974050775920618617e-02,6.162738531069035172e-03,4.650925053663612814e-03,-1.117279518929036597e-01,-2.644894676540770692e-02,1.601686216569262466e-01,1.118601784456776521e-01,6.998782236562899328e-01,6.456400044310258712e-01,4.586285273872893198e-01,-1.517773697549274804e-02,-4.309484122314775623e-01,3.717767109744173903e-01,4.235799962644022365e-01,1.090871894637798628e-01,-3.275465600038444114e-01,-3.166967839891181996e-02,1.840657576975238130e-01,2.468358421916505285e-01,5.567447946387154012e-01,6.476786815886838022e-01,2.419172432091107883e-01,-3.303567743014422242e-01,-5.489237563194568903e-01,-3.516045116436372076e-01,-1.054740868493477396e-01,-6.924904759513038355e-03,-2.847539929568456210e-02,3.976123884676992237e-02,-7.067110756986347275e-02,7.801587429864149936e-04,-2.518454817755126640e-02,2.280795125826390324e-02,2.378363428647166100e-01,2.458173647820209584e-01,7.824087923645732801e-01,5.719741354379855869e-01,-4.768361219447533536e-03,2.785798176728674150e-02,-2.007929171660892131e-01,3.863218003821948243e-01,2.848551322448710232e-01,1.308222341173852776e-01,4.023384756563234133e-01,6.831359112517214616e-01,1.295170546616875584e-01,2.010612571813163718e-01,7.692614632792872387e-01,8.545550898094737002e-01,2.330454794014515663e-01,-3.648098497962945497e-02,-4.264116528561528452e-01,-3.538914556413630952e-01,-7.502371971623153328e-03,-7.037068307386190776e-03,-1.401711387984933346e-02,-2.558425498718563257e-02,-4.134458468746120968e-02,3.137100707012600853e-02,-1.883848769329652187e-02,-3.761163089670965104e-02,8.071727286994807848e-02,-9.597597845120246773e-02,5.211112164691067417e-01,2.214155730949518563e-01,-1.919539613491066162e-03,-2.245004633796611124e-02,2.062649070891605096e-01,3.423265726498723738e-01,1.589241753458747186e-01,-1.137392647580945104e-01,2.067879552898357343e-01,5.277586073625611940e-01,-1.556090547588535704e-02,-4.736888503497795888e-01,1.462379453172458765e-01,1.842629649625077692e-01,-9.685504172941171441e-02,-4.035666158747020504e-01,-5.455392436799382239e-01,-2.720931515128858780e-01,-1.494560919186573578e-01,7.040917670560921729e-03,1.006618329203787382e-01,4.488925521015096898e-02,-5.037449272839044159e-03,4.064464923785770373e-02,2.242330872294577993e-03,8.069659219704318487e-02,-3.009286808370338906e-01,-5.003662446718927237e-01,4.012535246175548687e-01,-1.766680293934040913e-01,-2.136547771488694208e-02,-7.126833914132375825e-02,-7.602094966356430505e-02,3.249480542993063437e-01,3.791015453519817197e-02,3.886682662653798831e-02,-2.591711124898404828e-01,2.472613696394678484e-01,-1.482323095555659331e-01,-4.687829167504105610e-01,-2.117158868236465874e-01,-7.692815352108920424e-01,-3.263876250000760093e-01,-2.368819020301338174e-01,-3.705279674692344427e-01,-2.017951027047212853e-01,-1.652734139750149100e-01,1.984549326362158861e-01,9.973845169533081256e-02,8.620151619047342409e-04,-1.500748650160648595e-02,4.179777839612393298e-02,-2.289481302455538200e-02,6.237429787958610056e-02,-2.261708388966976180e-01,-5.469131281973165226e-01,-4.817130185352514610e-02,-2.199207121008883714e-01,1.863760178877142681e-01,-2.096799282085866356e-02,-1.254330552449945402e-01,1.328365076447968370e-02,1.239653554861901014e-01,-2.145814341351000298e-01,-5.804129876076461469e-01,-2.848900376990968195e-04,-1.717970635607294627e-01,3.401115596203759806e-01,1.641039439639032649e-01,-2.791659079349276817e-01,-2.040439126957527549e-01,-2.978249518311045785e-01,-4.974162795917614344e-01,-4.225908975474400031e-01,-1.578348965061388276e-01,-1.709987143678398311e-02,-1.193309363860638600e-01,-1.149213538826968951e-02,-4.918781201649227719e-02,1.511783152200315596e-02,-3.392104515806678572e-02,9.304413824529596602e-03,-6.822078430261768744e-02,-3.476630139486736049e-01,-2.698279487136555632e-01,-1.677029733212326290e-01,6.775721352654273666e-02,9.874650942111215524e-02,1.445076232398723459e-01,3.544018996993475445e-01,6.150424637787630516e-02,-1.244436617651469151e-01,-2.419704782480746053e-01,-2.283705539172071197e-01,-3.541900568717840092e-01,-3.241238218056986531e-01,-2.182617033046437560e-01,-1.971703054553960999e-01,-1.060810381788590551e-01,-7.303948459896082712e-02,-2.165308966586441120e-01,-2.479063664684987289e-01,-9.306105195922050044e-02,1.193610273102229807e-01,5.349679101284311733e-02,-6.183231667395523018e-02,-1.126431328675420521e-02,-3.000936739194471140e-02,-4.842053138561164261e-02,-3.702145015404734174e-02,-8.113360732132934849e-02,-1.589891965809406837e-01,-8.301793518286242068e-02,-1.519190379485305387e-01,-6.312956944508692214e-02,-1.479366963218149700e-01,1.045733243232204457e-01,3.523674786850126972e-02,4.824783211795108939e-01,2.890893850466884074e-01,-3.591925583950267287e-01,-1.346125295361969842e-01,-8.528314195441589751e-01,-5.647738704687828015e-01,-4.968134292318727163e-01,-1.310622817143372587e-01,-2.774866160446930463e-01,-2.355169518764360093e-01,-3.450934866829936110e-01,-4.426469299665709012e-01,-1.568191855827366643e-01,2.197170669779205388e-02,5.148304418593914120e-03,1.043866248875474981e-02,6.114527245682591094e-02,-6.676965750286507906e-02,-6.223532163606926293e-02,-5.585039327230954115e-02,-1.686899635595948688e-01,-2.582058587878963696e-01,-1.458443585385165719e-01,-1.690105760331417073e-01,-2.605568724542641768e-01,-1.186039738043376396e-01,3.780532360214146070e-01,4.258711095135473412e-01,4.273773410520591565e-01,-2.832210118940956534e-01,-4.481078855051099374e-01,-4.087346720653826093e-01,-5.096399688403886463e-01,-3.425631794874366975e-01,-2.397305469399247380e-01,-2.225107569562425336e-01,-2.270596230865885301e-01,-2.373368822028052993e-01,-1.991956723589037581e-01,-2.624608725154430888e-01,-1.325350285694577579e-01,4.928393962674191414e-02,8.083405014698313851e-03,1.337603136633439948e-03,-3.167021270205066380e-02,-2.010217211600755227e-02,-6.493140814728061427e-02,-3.419937695359545615e-02,-1.767241799010278169e-01,-2.510900034198718656e-01,-4.467989517362022656e-01,-2.917825350860779876e-01,-4.476502541634849175e-01,-4.532697028710174214e-01,-3.160516686430043243e-01,-1.545388204305790103e-01,9.427617313513296515e-02,-5.956427434670121812e-01,-5.121669535253405847e-01,-4.237393094053215070e-01,-2.273277704124220255e-01,1.411079688381328689e-01,-4.333870116304082143e-01,-1.549454796824748515e-01,-5.082851695943992887e-01,-3.067739675338118643e-01,-1.462143231867473470e-01,-9.209273931636163812e-02,-1.320117667924539662e-01,1.278075988994183468e-02,2.320643311800987861e-04,-8.688278480635134790e-03,1.400082975787690989e-02,2.691135982856786291e-02,-8.206355558691107513e-03,-1.457276606649210611e-02,-8.001130352053027750e-02,-2.411036541304691083e-01,-3.814318204436834558e-01,-3.821024743341815411e-01,-4.670712315106519963e-01,-7.008643926379273248e-01,-7.482396775011480594e-01,-8.141158072508379862e-01,-8.282008368707104440e-01,-9.878011419529749704e-01,-4.423425554395505332e-01,4.373307045706215611e-03,1.920461219647456863e-01,2.490532472373088724e-01,-2.016535370116622483e-01,-2.142622092119381427e-01,-4.790630997547737358e-01,-2.831900210331285694e-01,-1.269729768168937067e-01,2.930530878889065632e-02,7.387429944402202969e-04,5.109791154792606843e-02,2.832833360739699102e-02,3.505526655874651593e-03,1.099771185269512661e-02,3.210429430479121854e-02,-3.042439313934303113e-03,-3.872962080273719288e-03,-6.761266652826355972e-02,-5.035883463738372728e-02,-1.540771544415488470e-01,-2.963793976507843042e-01,-5.320127803252323595e-01,-7.674449908150108302e-01,-5.055109470788877735e-01,-6.315046561029805661e-01,-7.193824635504765252e-01,-8.351204914551181302e-01,-1.226662608070778621e-01,2.122542965006079529e-01,4.807083529716054543e-02,-2.443979552898939422e-01,-2.572698733555714434e-01,-5.087918959363154636e-01,-4.106563084154538773e-02,-2.453500576730548166e-01,-1.664385332202207302e-01,7.065778903104685815e-02,-9.731333300938781183e-02,-3.138324606743962686e-02,-3.152505823986091749e-02,-7.733925725456432254e-02,1.001229943136374909e-02,-4.355921151794759499e-02,-1.502009224336410716e-02,2.531694984696859427e-02,1.314971562626354382e-02,2.956383657004617305e-03,-1.888066441096435399e-01,-3.107338244923799064e-01,-4.727828528225196392e-01,-7.036034508116032482e-01,-4.405504718217536642e-01,-6.126330612826142996e-01,-5.284008919421752104e-01,-4.467669924754372190e-01,1.199784441940069876e-02,-2.517170187633592238e-01,-8.373836311830821222e-01,-1.524620778429801871e-01,-1.771155013390197375e-01,-7.017789483164850184e-01,-1.339521703995832091e-01,-4.577232363070649068e-01,4.310530842879344016e-02,1.422185864695487412e-01,-3.951598119676150156e-02,-2.185698974960931934e-02,-1.841704749167255920e-02,-6.240113522583917022e-02,-8.307898865458691884e-02,7.638029353667212529e-02,-5.069035994453253285e-02,-5.087430414684777913e-02,-2.226929997579034023e-02,-4.749960359679694655e-02,-1.989207678759943587e-01,-3.425825964916436872e-01,-2.682600449455984082e-01,-5.406282130833950372e-01,-2.101663988905029534e-01,-2.359100983732019818e-01,-4.723881935413837274e-01,-1.448178684612471401e-01,-1.004990987040900174e-01,-4.267680400793957829e-01,-4.167799492791386951e-01,-2.685982394038672894e-01,-2.528236528254667603e-01,3.507654431920045890e-02,1.669455664319492161e-01,-2.062203417636702951e-02,2.589225430375186598e-01,1.831430119545916779e-01,-9.211699084397687032e-03,7.992424653515991032e-03,-8.449137932987942773e-03,-4.065715446360701479e-02,-3.018155005203000327e-02,-2.467439368527290025e-02,4.062968716713352690e-02,-4.373018321451089402e-02,-3.222624694431740211e-02,-7.724751958932050966e-02,-1.049045715947351798e-01,-1.596734420005707922e-01,-1.252044352434486252e-01,-2.676422102703800154e-02,4.591937343276818878e-02,1.433797697652949010e-01,-1.364302713880902185e-01,5.837063029259009772e-02,1.520849604582144854e-01,-4.332097061919103487e-01,-1.587308301116532872e-01,-1.500072112126633328e-01,2.059580291354847284e-02,2.014663695690777634e-01,5.444405867853208125e-01,2.464833547864383467e-01,8.121488888335419432e-02,1.452666785235525171e-01,1.054882688922779456e-02,4.078016817516288278e-02,5.485120995202886693e-03,-2.516446106769514371e-02,-3.777208609084269086e-02,-3.373322115304050461e-02,1.041853772102476795e-02,-1.110300100776622119e-03,-4.795926496410275741e-02,-1.140345407708662565e-02,-7.837030787167159618e-02,-2.151748914188994152e-02,-1.178297948630614191e-02,6.278492683141710662e-02,1.075901811432051908e-01,-2.553142890366521534e-01,-5.890144850507218754e-02,3.083140981227421862e-01,4.687042893730632431e-01,2.780198916905750606e-01,7.218264680920679632e-01,9.107983310522632658e-01,5.970883292247415319e-01,6.870916658821399903e-01,3.220961364794933668e-01,-4.938278636296804941e-02,-2.255964961111494582e-01,-1.312151621215384978e-01,-2.774875295256085464e-02,-4.278743386789402720e-02,4.314678129445351923e-02,-2.132088693121682657e-02,8.332193263604095040e-03,7.854124465046118109e-02,-6.730246269099933801e-03,-4.838019348928834784e-02,-6.142334578705820058e-02,1.271339327826292130e-02,-2.121313832806188959e-02,1.322527085005869413e-04,2.360461485281633437e-02,2.690617005413372190e-02,-5.100966704781857708e-02,-1.632792556592086719e-01,-1.276681248452775641e-01,7.916032598709370205e-02,4.814866045233391345e-01,9.742976455419019577e-02,2.884387466977187398e-01,4.604611516523023362e-01,2.427844052900950400e-01,1.344708320107420862e-01,1.029725662197879393e-01,1.851594757917269241e-01,7.679824557161342435e-02,-2.185414189877125934e-02,-1.978275631389668152e-02,-8.750055757670339995e-02,1.190507503015431068e-02,-3.125959665958469996e-02,4.972137865970940526e-03,1.973829470967947489e-02,-3.938545587352407229e-02,-4.722178047437645011e-04,-1.269005020865148284e-02,-6.323351982844707675e-02,-1.702426251508559057e-02,-5.175273235773160743e-03,-3.875756353776792749e-03,-6.779517979770012526e-02,-9.641064171546000205e-02,-8.492696588283346615e-02,-4.466300900093381904e-02,-1.637884273376170874e-01,-9.811251190658847043e-02,-1.974613094742927732e-01,-9.751427087988165376e-02,-9.488302781384856666e-02,-3.093202648496439292e-02,8.159655680648333909e-02,-5.019139263521923966e-02,-1.193373150412384634e-02,1.955462339956944712e-02,-8.673734080381360206e-03,-2.681144609558238148e-02,-5.086529169440349996e-02,-8.181889950498232034e-02,-6.319039812543821022e-02
